svm_type c_svc
kernel_type rbf
gamma 2
nr_class 2
total_sv 213
rho 1.89237
label 1 -1
nr_sv 106 107
SV
3.591581451042778 1:0.00106028 2:-0.181069 3:-0.0990786 4:-0.119072 5:-0.0107065 6:-0.153377 7:-0.437686 8:-0.596247 9:0.0221377 10:-0.445009 11:-0.905067 12:-0.940227 13:-0.964591 14:-0.844175 15:0.695043 16:0.00245021 17:-0.495448 18:-0.0987302 19:-0.236084 20:-0.391934 21:-0.258301 22:-0.331511 23:-0.563574 24:-0.0265282 25:-0.46407 26:-0.971309 27:-0.995422 28:-0.953548 29:-0.867533 30:0.775428 31:-0.0165806 32:-0.915645 33:0.0201415 34:-0.984785 
5.325576412277973 1:-0.17225 2:-0.249868 3:-0.247009 4:0.0983815 5:-0.0934575 6:-0.220531 7:-0.499653 8:-0.510823 9:-0.153711 10:-0.596007 11:-0.998044 12:-0.999561 13:-0.967862 14:-0.902405 15:0.694185 16:-0.0862491 17:-0.615446 18:-0.218518 19:-0.128186 20:-0.503513 21:-0.218348 22:-0.406351 23:-0.505467 24:-0.128637 25:-0.473899 26:-0.919547 27:-0.972788 28:-0.953206 29:-0.859554 30:0.778721 31:0.0361511 32:-0.995665 33:0.0310289 34:-0.993719 
8.473151287432531 1:-0.711253 2:0.093974 3:-0.749209 4:0.186174 5:-0.112946 6:-0.0830598 7:-0.556565 8:0.00670091 9:-0.709037 10:-0.918519 11:-0.995017 12:-0.987511 13:-0.967796 14:-0.898525 15:0.69423 16:-0.654249 17:0.0261324 18:-0.701845 19:-0.260301 20:-0.31812 21:-0.288606 22:-0.388374 23:-0.0415476 24:-0.673454 25:-0.865184 26:-0.993713 27:-0.995366 28:-0.953546 29:-0.866957 30:0.775328 31:0.0736613 32:-0.976921 33:0.0108873 34:-0.994774 
30.15086846652932 1:-0.607194 2:0.0865753 3:-0.644188 4:0.149759 5:-0.108988 6:-0.125604 7:-0.539683 8:-0.28558 9:-0.600203 10:-0.875743 11:-0.997017 12:-0.995694 13:-0.967853 14:-0.901252 15:0.694196 16:-0.592978 17:-0.00563667 18:-0.626251 19:-0.270569 20:-0.309468 21:-0.334185 22:-0.367136 23:-0.272102 24:-0.605667 25:-0.851798 26:-0.996428 27:-0.995715 28:-0.953544 29:-0.866553 30:0.775258 31:0.0339766 32:-0.973726 33:0.00762112 34:-0.992961 
9.157103068759554 1:-0.810714 2:0.0739661 3:-0.838706 4:0.102602 5:-0.11156 6:-0.144501 7:-0.529808 8:0.220069 9:-0.810873 10:-0.953153 11:-0.997687 12:-0.999135 13:-0.967863 14:-0.902637 15:0.694185 16:-0.624521 17:-0.00928096 18:-0.697531 19:-0.214572 20:-0.335956 21:-0.274178 22:-0.338587 23:-0.147766 24:-0.653004 25:-0.840585 26:-0.991947 27:-0.995488 28:-0.953536 29:-0.866412 30:0.775366 31:-0.0600707 32:-0.719865 33:0.0582471 34:-0.989619 
1.930025905247422 1:-0.789448 2:0.0486857 3:-0.816099 4:0.0840209 5:-0.0761344 6:-0.176565 7:-0.509734 8:0.10017 9:-0.7884 10:-0.946779 11:-0.999666 12:-0.999352 13:-0.967862 14:-0.902206 15:0.694184 16:-0.585915 17:-0.0292575 18:-0.66427 19:-0.249277 20:-0.307659 21:-0.320596 22:-0.328968 23:-0.248985 24:-0.615817 25:-0.822514 26:-0.996108 27:-0.997583 28:-0.95354 29:-0.866513 30:0.775279 31:0.340038 32:-0.181855 33:0.0419162 34:-0.988919 
3.950040903085188 1:-0.110812 2:-0.279093 3:-0.162124 4:0.109243 5:-0.127455 6:-0.000934421 7:-0.60461 8:-0.522698 9:-0.084849 10:-0.551763 11:-0.98862 12:-0.995751 13:-0.967841 14:-0.903518 15:0.694194 16:-0.15636 17:-0.422633 18:-0.253541 19:-0.248084 20:-0.411366 21:-0.185692 22:-0.558277 23:-0.443923 24:-0.186416 25:-0.576113 26:-0.975366 27:-0.982335 28:-0.953519 29:-0.873167 30:0.776445 31:-0.109541 32:-0.995672 33:-0.101252 34:-0.988494 
4.644743659920213 1:-0.598268 2:0.173598 3:-0.637959 4:0.206166 5:-0.0431988 6:-0.158705 7:-0.458874 8:-0.000577129 9:-0.591425 10:-0.87053 11:-0.981641 12:-0.986923 13:-0.967714 14:-0.895891 15:0.694147 16:-0.593369 17:0.122406 18:-0.624836 19:-0.283844 20:-0.25659 21:-0.345544 22:-0.287194 23:-0.0612346 24:-0.605371 25:-0.848606 26:-0.995758 27:-0.997564 28:-0.953536 29:-0.865417 30:0.775254 31:0.0970372 32:-0.943805 33:0.0348394 34:-0.992094 
5.85321852836481 1:-0.610685 2:0.174066 3:-0.663896 4:0.155116 5:-0.0528757 6:-0.163145 7:-0.45539 8:0.0109146 9:-0.607108 10:-0.874245 11:-0.995229 12:-0.996722 13:-0.967853 14:-0.900757 15:0.694179 16:-0.610737 17:0.134644 18:-0.633293 19:-0.295627 20:-0.271866 21:-0.372284 22:-0.268285 23:-0.0855979 24:-0.6196 25:-0.859173 26:-0.993734 27:-0.996218 28:-0.953528 29:-0.864949 30:0.775249 31:0.106823 32:-0.783527 33:0.0430049 34:-0.988819 
2.528496112636351 1:-0.432062 2:-0.00410715 3:-0.429389 4:0.30102 5:-0.0363093 6:-0.0595731 7:-0.462283 8:-0.372535 9:-0.40938 10:-0.792596 11:-0.960573 12:-0.944169 13:-0.965929 14:-0.868334 15:0.694122 16:-0.56502 17:-0.0953273 18:-0.528631 19:-0.117575 20:-0.335843 21:-0.184028 22:-0.423568 23:-0.245236 24:-0.550469 25:-0.880216 26:-0.984656 27:-0.973588 28:-0.953452 29:-0.862092 30:0.776881 31:-0.00135906 32:-0.994884 33:-0.0136091 34:-0.994166 
2.274236214005302 1:-0.428329 2:0.021976 3:-0.439814 4:0.311082 5:-0.0332121 6:-0.0677522 7:-0.456882 8:-0.379814 9:-0.40833 10:-0.788048 11:-0.952731 12:-0.939464 13:-0.965475 14:-0.865107 15:0.694016 16:-0.53623 17:-0.0985872 18:-0.504479 19:-0.116204 20:-0.350702 21:-0.18645 22:-0.412071 23:-0.288972 24:-0.522989 25:-0.867896 26:-0.980862 27:-0.9734 28:-0.953393 29:-0.861823 30:0.776951 31:-0.0149497 32:-0.993184 33:-0.0190528 34:-0.992599 
3.399576134111426 1:-0.47559 2:0.0109158 3:-0.597089 4:0.309651 5:-0.173658 6:-0.153705 7:-0.60836 8:-0.149973 9:-0.479801 10:-0.795308 11:-0.917307 12:-0.94245 13:-0.965379 14:-0.873164 15:0.696468 16:-0.467858 17:-0.0572475 18:-0.681913 19:-0.0780296 20:-0.368638 21:-0.267628 22:-0.439146 23:-0.0715386 24:-0.547976 25:-0.668218 26:-0.91417 27:-0.964343 28:-0.953248 29:-0.857808 30:0.781265 31:-0.00298994 32:-0.978762 33:0.0179641 34:-0.996426 
0.6012241281003254 1:-0.520089 2:-0.128296 3:-0.533167 4:0.0540648 5:-0.115273 6:-0.110784 7:-0.484645 8:-0.238462 9:-0.504453 10:-0.835717 11:-0.985795 12:-0.997654 13:-0.967854 14:-0.901563 15:0.694175 16:-0.561177 17:-0.289822 18:-0.577518 19:-0.248239 20:-0.375905 21:-0.2529 22:-0.351299 23:-0.204935 24:-0.566834 25:-0.842911 26:-0.976432 27:-0.995354 28:-0.953551 29:-0.867019 30:0.775398 31:0.0133188 32:-0.994234 33:0.0381056 34:-0.986173 
3.94227138871965 1:-0.545544 2:-0.338137 3:-0.561996 4:0.185368 5:-0.12773 6:-0.031811 7:-0.471948 8:-0.0120688 9:-0.531707 10:-0.840996 11:-0.992157 12:-0.986678 13:-0.967787 14:-0.895136 15:0.694085 16:-0.577645 17:-0.496825 18:-0.582151 19:-0.214056 20:-0.379641 21:-0.139457 22:-0.338725 23:0.0409251 24:-0.579024 25:-0.836204 26:-0.963763 27:-0.992516 28:-0.953477 29:-0.865178 30:0.775377 31:0.00516445 32:-0.999001 33:-0.00217746 34:-0.996908 
7.646689148627324 1:-0.538418 2:0.0403968 3:-0.496373 4:0.393811 5:-0.280027 6:-0.015351 7:-0.721199 8:-0.151506 9:-0.512504 10:-0.855256 11:-0.873173 12:-0.860872 13:-0.956159 14:-0.849766 15:0.704424 16:-0.563984 17:-0.0709407 18:-0.599352 19:-0.0964593 20:-0.415708 21:-0.142894 22:-0.635545 23:-0.147139 24:-0.577001 25:-0.840163 26:-0.985638 27:-0.948241 28:-0.953935 29:-0.864368 30:0.778961 31:0.0187551 32:-0.999141 33:0.0195972 34:-0.995441 
7.016471767425053 1:-0.265934 2:0.074044 3:-0.330253 4:0.36663 5:-0.291281 6:-0.0245342 7:-0.677212 8:-0.478263 9:-0.24941 10:-0.673268 11:-0.87754 12:-0.883688 13:-0.958717 14:-0.840828 15:0.700931 16:-0.41213 17:-0.0611325 18:-0.473607 19:-0.0827432 20:-0.471328 21:-0.155299 22:-0.65212 23:-0.358013 24:-0.432678 25:-0.758963 26:-0.970157 27:-0.939631 28:-0.953942 29:-0.864584 30:0.782993 31:0.00951345 32:-0.998121 33:0.0125204 34:-0.996326 
5.816452131514066 1:-0.460717 2:-0.0648094 3:-0.554462 4:0.451491 5:-0.0675772 6:-0.0966539 7:-0.450995 8:-0.230417 9:-0.45869 10:-0.791098 11:-0.822602 12:-0.844027 13:-0.94879 14:-0.806453 15:0.692091 16:-0.464319 17:-0.220289 18:-0.568799 19:0.0105531 20:-0.292934 21:-0.117786 22:-0.243465 23:-0.234926 24:-0.502259 25:-0.748666 26:-0.891532 27:-0.925304 28:-0.950222 29:-0.838491 30:0.774326 31:-0.029084 32:-0.975763 33:0.0277627 34:-0.987032 
11.18120008901975 1:-0.294038 2:0.0335747 3:-0.34154 4:0.0871943 5:-0.00983614 6:-0.17001 7:-0.407367 8:-0.371386 9:-0.275373 10:-0.696466 11:-0.997486 12:-0.998325 13:-0.967863 14:-0.903087 15:0.694188 16:-0.374887 17:-0.0964624 18:-0.461178 19:-0.32373 20:-0.308217 21:-0.371643 22:-0.31282 23:-0.181193 24:-0.40436 25:-0.722521 26:-0.981343 27:-0.991228 28:-0.953503 29:-0.864008 30:0.774991 31:0.0524599 32:-0.976138 33:0.0255852 34:-0.993953 
4.127326023867769 1:-0.442093 2:-0.131387 3:-0.508114 4:-0.100472 5:-0.0145584 6:-0.194173 7:-0.436543 8:-0.331164 9:-0.433667 10:-0.784228 11:-0.93406 12:-0.946524 13:-0.965551 14:-0.869185 15:0.69476 16:-0.463013 17:-0.338756 18:-0.538431 19:-0.280618 20:-0.254117 21:-0.368256 22:-0.272337 23:-0.256169 24:-0.48976 25:-0.761536 26:-0.998162 27:-0.99776 28:-0.953535 29:-0.86552 30:0.775269 31:-0.059527 32:-0.87256 33:0.0146979 34:-0.987419 
7.538694702662429 1:-0.536792 2:-0.190389 3:-0.590168 4:0.0381867 5:-0.0045988 6:-0.200305 7:-0.428192 8:-0.145377 9:-0.529995 10:-0.836266 11:-0.992388 12:-0.992811 13:-0.967826 14:-0.899219 15:0.69421 16:-0.509704 17:-0.380742 18:-0.6054 19:-0.259635 20:-0.251568 21:-0.352866 22:-0.220617 23:-0.111844 24:-0.545015 25:-0.76482 26:-0.996585 27:-0.999568 28:-0.953536 29:-0.865707 30:0.77528 31:-0.000271813 32:-0.997927 33:-0.0206859 34:-0.98156 
1.835967282940969 1:-0.496146 2:-0.195126 3:-0.48871 4:-0.304006 5:0.0346691 6:-0.310022 7:-0.331279 8:-0.268342 9:-0.475326 10:-0.825036 11:-0.792541 12:-0.769867 13:-0.932213 14:-0.773389 15:0.709046 16:-0.468499 17:-0.338437 18:-0.423555 19:-0.433069 20:-0.269439 21:-0.493338 22:-0.232385 23:-0.266166 24:-0.44907 25:-0.840352 26:-0.946927 27:-0.958001 28:-0.952563 29:-0.85436 30:0.775917 31:-0.0589834 32:-0.984125 33:0.0125204 34:-0.990192 
3.524118895821025 1:-0.556464 2:-0.13854 3:-0.512556 4:-0.245356 5:-0.0395781 6:-0.266851 7:-0.386619 8:-0.224289 9:-0.530969 10:-0.862022 11:-0.841623 12:-0.837405 13:-0.949146 14:-0.819533 15:0.700686 16:-0.514874 17:-0.370035 18:-0.455956 19:-0.390811 20:-0.334638 21:-0.492168 22:-0.272467 23:-0.274601 24:-0.490839 25:-0.861888 26:-0.966123 27:-0.971529 28:-0.953101 29:-0.860084 30:0.775508 31:0.0796412 32:-0.980569 33:0.010343 34:-0.988752 
0.8493219702413072 1:-0.397956 2:0.0462107 3:-0.367463 4:0.222965 5:-0.152316 6:-0.0849408 7:-0.56448 8:-0.332697 9:-0.368179 10:-0.778074 11:-0.980409 12:-0.97596 13:-0.967504 14:-0.890687 15:0.694395 16:-0.587475 17:-0.0834109 18:-0.51494 19:-0.225023 20:-0.220499 21:-0.248351 22:-0.21934 23:-0.197438 24:-0.559402 25:-0.905224 26:-0.998108 27:-0.999103 28:-0.953537 29:-0.86557 30:0.775276 31:-0.0573525 32:-0.991508 33:-0.00979858 34:-0.986027 
8.653199290579876 1:-0.243838 2:-0.00464699 3:-0.29413 4:0.170716 5:0.0184929 6:-0.092819 7:-0.396733 8:-0.537638 9:-0.223519 10:-0.660472 11:-0.991581 12:-0.99004 13:-0.967802 14:-0.898597 15:0.694137 16:-0.328059 17:-0.189924 18:-0.427089 19:-0.110368 20:-0.197646 21:-0.154525 22:-0.262656 23:-0.38894 24:-0.361657 25:-0.686491 26:-0.988406 27:-0.976609 28:-0.953369 29:-0.856277 30:0.775872 31:0.134547 32:-0.934821 33:-0.00598802 34:-0.984918 
2.623045321097776 1:-0.25894 2:-0.00239984 3:-0.339243 4:0.380923 5:0.0807016 6:-0.084801 7:-0.395035 8:-0.416206 9:-0.245322 10:-0.664579 11:-0.872366 12:-0.892746 13:-0.958802 14:-0.828434 15:0.691425 16:-0.324863 17:-0.179311 18:-0.420998 19:-0.0719254 20:-0.21508 21:-0.115979 22:-0.259886 23:-0.209622 24:-0.357296 25:-0.687532 26:-0.979466 27:-0.961875 28:-0.953027 29:-0.850321 30:0.776154 31:-0.000271813 32:-0.996053 33:-0.078933 34:-0.992366 
8.762266967173767 1:-0.650894 2:-0.00367132 3:-0.725004 4:-0.140965 5:-0.0316688 6:-0.201858 7:-0.482166 8:-0.0289247 9:-0.653292 10:-0.889699 11:-0.907702 12:-0.924002 13:-0.963169 14:-0.867307 15:0.693992 16:-0.74112 17:-0.157799 18:-0.764952 19:-0.342275 20:-0.24233 21:-0.401454 22:-0.358357 23:0.108721 24:-0.752622 25:-0.905229 26:-0.983242 27:-0.987054 28:-0.95353 29:-0.863962 30:0.774674 31:-0.0894265 32:-0.996107 33:-0.0685901 34:-0.962824 
1.926093135345767 1:-0.88192 2:0.0864009 3:-0.901578 4:-0.0207298 5:-0.097171 6:-0.194198 7:-0.518015 8:0.475954 9:-0.883538 10:-0.97321 11:-0.97785 12:-0.97942 13:-0.967547 14:-0.897077 15:0.694064 16:-0.889995 17:-0.0277369 18:-0.912915 19:-0.290966 20:-0.236384 21:-0.359456 22:-0.268399 23:0.542645 24:-0.903602 25:-0.946479 26:-0.996161 27:-0.997183 28:-0.953533 29:-0.865378 30:0.775256 31:0.016037 32:-0.981587 33:-0.0125204 34:-0.985985 
6.713144274963415 1:-0.668994 2:0.0700863 3:-0.695646 4:0.142731 5:-0.102686 6:-0.129775 7:-0.539206 8:-0.0450136 9:-0.662644 10:-0.903549 11:-0.998047 12:-0.996749 13:-0.967858 14:-0.901679 15:0.694191 16:-0.527879 17:-0.10719 18:-0.597527 19:-0.150978 20:-0.237987 21:-0.243113 22:-0.312478 23:-0.195564 24:-0.553477 25:-0.804139 26:-0.987911 27:-0.988895 28:-0.953504 29:-0.862741 30:0.775631 31:0.0356075 32:-0.993194 33:0.0642352 34:-0.993668 
0.8492644885325971 1:-0.326326 2:0.319132 3:-0.318628 4:0.197454 5:-0.0702226 6:-0.0900779 7:-0.503916 8:-0.33193 9:-0.297977 10:-0.725349 11:-0.99393 12:-0.986378 13:-0.967772 14:-0.89309 15:0.694214 16:-0.269112 17:0.306252 18:-0.318964 19:-0.115575 20:-0.290244 21:-0.150179 22:-0.382206 23:-0.399249 24:-0.282835 25:-0.678632 26:-0.992278 27:-0.974325 28:-0.953451 29:-0.860222 30:0.776293 31:0.138353 32:-0.884774 33:0.0930866 34:-0.981365 
1.851059867772271 1:-0.295819 2:0.245293 3:-0.299094 4:0.133584 5:-0.0872812 6:-0.0860203 7:-0.52213 8:-0.430762 9:-0.268341 10:-0.704945 11:-0.999614 12:-0.997457 13:-0.967861 14:-0.901131 15:0.694182 16:-0.262323 17:0.212116 18:-0.323557 19:-0.136957 20:-0.307204 21:-0.166039 22:-0.397259 23:-0.435176 24:-0.280307 25:-0.674437 26:-0.996111 27:-0.979591 28:-0.953501 29:-0.862465 30:0.775816 31:0.294917 32:-0.883316 33:0.0876429 34:-0.978398 
4.781145532262156 1:-0.650436 2:0.0410668 3:-0.634202 4:0.108584 5:-0.17241 6:-0.149082 7:-0.58841 8:-0.140396 9:-0.634644 10:-0.901486 11:-0.98859 12:-0.99549 13:-0.967885 14:-0.904281 15:0.694198 16:-0.726976 17:-0.0815378 18:-0.673954 19:-0.221327 20:-0.367556 21:-0.293316 22:-0.438568 23:-0.0437339 24:-0.708704 25:-0.935539 26:-0.995314 27:-0.991125 28:-0.953559 29:-0.867227 30:0.775387 31:0.0709432 32:-0.998753 33:0.0462711 34:-0.994799 
4.608781728892597 1:-0.591102 2:0.0654121 3:-0.598593 4:0.122462 5:-0.179203 6:-0.141321 7:-0.600018 8:-0.209349 9:-0.57747 10:-0.872697 11:-0.987337 12:-0.99418 13:-0.967885 14:-0.904631 15:0.694228 16:-0.679376 17:-0.040993 18:-0.640577 19:-0.231307 20:-0.388353 21:-0.325519 22:-0.47009 23:-0.129962 24:-0.665786 25:-0.916779 26:-0.993942 27:-0.989245 28:-0.953579 29:-0.868093 30:0.775276 31:0.0214732 32:-0.996973 33:0.00381056 34:-0.995553 
2.173195527345551 1:-0.454582 2:-0.129257 3:-0.463298 4:0.0719326 5:-0.0890368 6:-0.154246 7:-0.447161 8:-0.248805 9:-0.435183 10:-0.801541 11:-0.995879 12:-0.998985 13:-0.967861 14:-0.901696 15:0.694186 16:-0.46982 17:-0.408827 18:-0.538998 19:-0.214342 20:-0.315414 21:-0.276192 22:-0.260397 23:-0.218681 24:-0.494281 25:-0.762746 26:-0.987346 27:-0.997744 28:-0.953532 29:-0.865472 30:0.775304 31:0.0231041 32:-0.943737 33:0.0326619 34:-0.983973 
0.4154285065851867 1:-0.37161 2:-0.0419759 3:-0.387091 4:-0.0367374 5:-0.0316559 6:-0.178367 7:-0.414481 8:-0.410076 9:-0.349918 10:-0.752965 11:-0.968192 12:-0.974734 13:-0.967375 14:-0.886207 15:0.694491 16:-0.41087 17:-0.305288 18:-0.477667 19:-0.240611 20:-0.269401 21:-0.296688 22:-0.245644 23:-0.353014 24:-0.433443 25:-0.74621 26:-0.995347 27:-0.999588 28:-0.953536 29:-0.865865 30:0.775281 31:-0.00135906 32:-0.989159 33:-0.00217746 34:-0.98944 
2.13128891071548 1:-0.468012 2:0.200219 3:-0.543871 4:-0.107673 5:-0.255464 6:-0.247468 7:-0.638922 8:-0.314692 9:-0.462705 10:-0.79795 11:-0.909069 12:-0.926977 13:-0.964084 14:-0.870143 15:0.690904 16:-0.468457 17:0.164466 18:-0.488399 19:-0.397824 20:-0.445218 21:-0.506719 22:-0.526309 23:-0.377069 24:-0.473969 25:-0.804521 26:-0.970932 27:-0.953335 28:-0.953257 29:-0.858809 30:0.77012 31:0.0138625 32:-0.99575 33:0.0108873 34:-0.993308 
23.05100728724207 1:-0.563601 2:0.239503 3:-0.574308 4:-0.00538086 5:-0.285078 6:-0.209506 7:-0.694842 8:-0.161848 9:-0.549404 10:-0.85741 11:-0.938571 12:-0.965624 13:-0.967602 14:-0.901241 15:0.692515 16:-0.551191 17:0.266898 18:-0.578036 19:-0.368882 20:-0.4732 21:-0.45825 22:-0.553194 23:-0.168697 24:-0.56072 25:-0.825037 26:-0.969459 27:-0.960766 28:-0.953549 29:-0.862595 30:0.770964 31:0.0220169 32:-0.933936 33:-0.00598802 34:-0.985518 
2.082593995735926 1:-0.137559 2:0.30024 3:-0.141101 4:0.0739914 5:-0.0581294 6:-0.128614 7:-0.471616 8:-0.516186 9:-0.103168 10:-0.588073 11:-0.996182 12:-0.999377 13:-0.967861 14:-0.901788 15:0.694185 16:-0.177021 17:0.226868 18:-0.132039 19:-0.372001 20:-0.460797 21:-0.421124 22:-0.457578 23:-0.488597 24:-0.152771 25:-0.713767 26:-0.944074 27:-0.968871 28:-0.953358 29:-0.861259 30:0.771314 31:0.059527 32:-0.948599 33:-0.00272183 34:-0.990699 
2.71325430419709 1:0.0450622 2:0.264207 3:-0.0307968 4:0.0219191 5:-0.0626995 6:-0.152761 7:-0.462952 8:-0.62536 9:0.0729495 10:-0.411946 11:-0.986657 12:-0.992368 13:-0.967805 14:-0.894635 15:0.694199 16:-0.052928 17:0.187076 18:-0.0198254 19:-0.406234 20:-0.421988 21:-0.468181 22:-0.480448 23:-0.594814 24:-0.0312018 25:-0.642305 26:-0.952838 27:-0.956753 28:-0.953177 29:-0.855398 30:0.76952 31:-0.0307149 32:-0.976703 33:0.00979858 34:-0.995334 
1.983360214082996 1:-0.0801229 2:0.216358 3:-0.120849 4:-0.115996 5:0.019632 6:-0.194142 7:-0.42495 8:-0.581307 9:-0.0506806 10:-0.533915 11:-0.917467 12:-0.93731 13:-0.9646 14:-0.850098 15:0.695147 16:-0.068805 17:0.20293 18:-0.0489858 19:-0.462474 20:-0.266283 21:-0.477608 22:-0.351581 23:-0.591064 24:-0.0524467 25:-0.638528 26:-0.912847 27:-0.944979 28:-0.95201 29:-0.842528 30:0.768216 31:-0.0578962 32:-0.97229 33:-0.00108873 34:-0.971332 
1.550490720150898 1:-0.720216 2:0.116368 3:-0.790503 4:0.0274796 5:-0.110883 6:-0.188025 7:-0.529064 8:0.0775687 9:-0.724896 10:-0.917947 11:-0.990658 12:-0.991456 13:-0.967812 14:-0.899477 15:0.694145 16:-0.473214 17:0.111967 18:-0.557555 19:-0.271854 20:-0.367459 21:-0.331038 22:-0.386405 23:-0.292096 24:-0.503559 25:-0.766388 26:-0.987733 27:-0.993496 28:-0.953561 29:-0.867348 30:0.775182 31:0.631965 32:-0.352545 33:0.0375612 34:-0.991319 
11.49618800653915 1:-0.699846 2:0.126469 3:-0.773497 4:0.0293865 5:-0.131484 6:-0.183782 7:-0.562923 8:0.115492 9:-0.704306 10:-0.909656 11:-0.988889 12:-0.990731 13:-0.967816 14:-0.900008 15:0.694106 16:-0.45359 17:0.100952 18:-0.527022 19:-0.235932 20:-0.382047 21:-0.291921 22:-0.407393 23:-0.288346 24:-0.479419 25:-0.765692 26:-0.989042 27:-0.992701 28:-0.953563 29:-0.868319 30:0.775398 31:0.565099 32:-0.622383 33:-0.0468155 34:-0.979226 
1.262568033810045 1:-0.525806 2:-0.00447174 3:-0.566746 4:0.121347 5:-0.096202 6:-0.147571 7:-0.492948 8:-0.373302 9:-0.516025 10:-0.835883 11:-0.998382 12:-0.999314 13:-0.967861 14:-0.902176 15:0.694185 16:-0.56502 17:-0.173064 18:-0.636374 19:-0.213165 20:-0.292811 21:-0.302673 22:-0.252289 23:-0.243674 24:-0.591886 25:-0.816902 26:-0.9903 27:-0.998311 28:-0.953534 29:-0.865591 30:0.775295 31:0.0241914 32:-0.976036 33:0.0495373 34:-0.985098 
19.92973196395069 1:-0.652263 2:-0.0210547 3:-0.694581 4:0.0779603 5:-0.0522291 6:-0.133785 7:-0.500594 8:-0.19824 9:-0.648326 10:-0.89436 11:-0.99674 12:-0.999553 13:-0.967862 14:-0.902112 15:0.694184 16:-0.704682 17:-0.184212 18:-0.760985 19:-0.200793 20:-0.145344 21:-0.282022 22:-0.193151 23:-0.0930982 24:-0.728066 25:-0.876872 26:-0.995081 27:-0.997397 28:-0.953532 29:-0.865338 30:0.775271 31:0.1215 32:-0.861075 33:0.060969 34:-0.968891 
15.10089810744281 1:-0.790699 2:0.145103 3:-0.787491 4:-0.0703141 5:-0.15673 6:-0.186553 7:-0.556586 8:0.233473 9:-0.783704 10:-0.949586 11:-0.943797 12:-0.959134 13:-0.96652 14:-0.890081 15:0.693393 16:-0.846593 17:0.0283338 18:-0.849179 19:-0.274374 20:-0.256769 21:-0.372079 22:-0.293051 23:0.466731 24:-0.851668 25:-0.942671 26:-0.999404 27:-0.997837 28:-0.953536 29:-0.86565 30:0.775272 31:0.0388693 32:-0.992986 33:0.0234077 34:-0.995526 
6.982413615569595 1:-0.731866 2:0.133318 3:-0.751517 4:-0.137837 5:-0.0424236 6:-0.237416 7:-0.460808 8:0.034665 9:-0.726876 10:-0.927857 11:-0.924645 12:-0.922361 13:-0.963487 14:-0.872854 15:0.6945 16:-0.832196 17:0.0115421 18:-0.829961 19:-0.297593 20:-0.164039 21:-0.388616 22:-0.230394 23:0.313648 24:-0.835181 25:-0.94139 26:-0.995158 27:-0.996339 28:-0.95353 29:-0.865108 30:0.77525 31:0.0415874 32:-0.997471 33:0.0538922 34:-0.992619 
1.989636597664887 1:-0.434139 2:0.0757101 3:-0.49895 4:-0.105576 5:-0.0633833 6:-0.227641 7:-0.467386 8:-0.383645 9:-0.42512 10:-0.781752 11:-0.943835 12:-0.94185 13:-0.965412 14:-0.865704 15:0.69436 16:-0.530985 17:-0.101366 18:-0.558332 19:-0.21085 20:-0.111931 21:-0.292142 22:-0.0769289 23:-0.241486 24:-0.540375 25:-0.83203 26:-0.998239 27:-0.995423 28:-0.953541 29:-0.866401 30:0.775252 31:-0.011688 32:-0.996694 33:-0.00435493 34:-0.992427 
11.71057256671381 1:-0.614207 2:0.0889683 3:-0.645753 4:0.0771108 5:0.0276108 6:-0.180715 7:-0.383321 8:-0.086001 9:-0.606429 10:-0.879635 11:-0.991673 12:-0.995832 13:-0.967867 14:-0.903434 15:0.694211 16:-0.654192 17:-0.0543912 18:-0.650642 19:-0.183962 20:-0.086457 21:-0.250492 22:-0.0128661 23:0.0053165 24:-0.653736 25:-0.892806 26:-0.997441 27:-0.989024 28:-0.953555 29:-0.86616 30:0.775137 31:-0.0062517 32:-0.955937 33:0.0201415 34:-0.991652 
1.296771288724641 1:-0.782878 2:0.112932 3:-0.778255 4:0.0226616 5:-0.129014 6:-0.160748 7:-0.54303 8:0.0534347 9:-0.775253 10:-0.947585 11:-0.983858 12:-0.990675 13:-0.967799 14:-0.900124 15:0.6941 16:-0.826343 17:0.0429068 18:-0.794445 19:-0.309475 20:-0.231405 21:-0.367262 22:-0.267925 23:0.171193 24:-0.817831 25:-0.950026 26:-0.991627 27:-0.995023 28:-0.953524 29:-0.864949 30:0.775212 31:0.101386 32:-0.93855 33:0.03865 34:-0.992632 
24.65368447039073 1:-0.707715 2:0.0977676 3:-0.704527 4:-0.0419569 5:-0.132912 6:-0.17963 7:-0.544697 8:-0.137332 9:-0.697069 10:-0.921972 11:-0.96162 12:-0.971839 13:-0.96723 14:-0.892346 15:0.693799 16:-0.742552 17:0.00941808 18:-0.762389 19:-0.348449 20:-0.234065 21:-0.392583 22:-0.254821 23:-0.0602933 24:-0.752542 25:-0.908055 26:-0.978355 27:-0.987917 28:-0.953444 29:-0.863049 30:0.7751 31:-0.0144061 32:-0.967621 33:0.0152422 34:-0.994468 
4.314930352864119 1:-0.7366 2:0.200282 3:-0.738389 4:0.199913 5:-0.0955291 6:-0.0876789 7:-0.505757 8:-0.00287572 9:-0.728227 10:-0.930609 11:-0.992565 12:-0.985376 13:-0.967749 14:-0.897296 15:0.694196 16:-0.610969 17:0.224506 18:-0.684618 19:-0.261577 20:-0.227224 21:-0.285752 22:-0.255249 23:-0.19119 24:-0.639476 25:-0.823787 26:-0.994255 27:-0.999706 28:-0.953536 29:-0.865779 30:0.775279 31:0.775482 32:-0.878708 33:0.00435493 34:-0.990401 
1.295144543522342 1:-0.779899 2:0.0718824 3:-0.672289 4:0.252234 5:-0.127706 6:-0.094105 7:-0.604444 8:0.156864 9:-0.751432 10:-0.956602 11:-0.974474 12:-0.965956 13:-0.967265 14:-0.893683 15:0.69483 16:-0.839107 17:-0.081051 18:-0.80145 19:-0.154755 20:-0.208533 21:-0.22941 22:-0.280934 23:0.340208 24:-0.82859 25:-0.956348 26:-0.991476 27:-0.989877 28:-0.953505 29:-0.86416 30:0.775504 31:0.120957 32:-0.990799 33:0.0402831 34:-0.978893 
21.00821062530401 1:-0.712155 2:0.103487 3:-0.648866 4:0.199831 5:-0.121964 6:-0.104995 7:-0.580177 8:-0.075275 9:-0.689618 10:-0.930298 11:-0.989818 12:-0.984255 13:-0.967749 14:-0.898211 15:0.694324 16:-0.751261 17:-0.0416338 18:-0.75494 19:-0.166932 20:-0.195239 21:-0.242872 22:-0.254388 23:0.019062 24:-0.755185 25:-0.918469 26:-0.99335 27:-0.992628 28:-0.953516 29:-0.864203 30:0.775377 31:0.117151 32:-0.987656 33:0.0397387 34:-0.991426 
0.5659073479465955 1:-0.713226 2:0.0990532 3:-0.735392 4:-0.196771 5:-0.128405 6:-0.260038 7:-0.511134 8:-0.116647 9:-0.70792 10:-0.921068 11:-0.880567 12:-0.878397 13:-0.957075 14:-0.85435 15:0.693285 16:-0.711005 17:0.0284278 18:-0.692411 19:-0.385585 20:-0.243044 21:-0.469362 22:-0.176717 23:-0.149325 24:-0.705705 25:-0.915758 26:-0.973431 27:-0.975682 28:-0.95328 29:-0.860483 30:0.776351 31:0.187279 32:-0.973412 33:-0.0168753 34:-0.993653 
19.50622239768505 1:-0.895736 2:0.076292 3:-0.881341 4:-0.0214524 5:-0.103868 6:-0.206719 7:-0.510515 8:0.238462 9:-0.891114 10:-0.979026 11:-0.979067 12:-0.978531 13:-0.96753 14:-0.897268 15:0.694101 16:-0.892044 17:-0.00164639 18:-0.877832 19:-0.307833 20:-0.240606 21:-0.383122 22:-0.216824 23:0.221499 24:-0.891412 25:-0.959412 26:-0.992574 27:-0.995191 28:-0.953523 29:-0.864992 30:0.77531 31:0.149769 32:-0.956474 33:0.0315732 34:-0.990067 
0.3904394562752109 1:-0.925053 2:-0.0202466 3:-0.954501 4:0.206136 5:-0.0453096 6:-0.130664 7:-0.455502 8:0.914957 9:-0.93054 10:-0.9822 11:-0.986328 12:-0.985764 13:-0.967717 14:-0.899148 15:0.694148 16:-1 17:-0.113828 18:-0.959648 19:-0.186887 20:-0.219059 21:-0.265639 22:-0.202437 23:1 24:-0.991099 25:-0.986073 26:-0.995749 27:-0.996004 28:-0.953529 29:-0.865327 30:0.77525 31:-0.0127752 32:-0.994064 33:-0.00816549 34:-0.9984 
2.25524887001375 1:-0.474044 2:0.141575 3:-0.449188 4:-0.0601496 5:-0.14436 6:-0.18611 7:-0.556398 8:-0.402798 9:-0.448751 10:-0.819341 11:-0.952191 12:-0.963859 13:-0.966841 14:-0.883746 15:0.693545 16:-0.549636 17:-0.0357247 18:-0.561595 19:-0.3004 20:-0.214978 21:-0.341779 22:-0.194408 23:-0.278975 24:-0.553418 25:-0.848356 26:-0.989366 27:-0.996868 28:-0.953529 29:-0.864895 30:0.775311 31:-0.00244632 32:-0.989053 33:-0.0157866 34:-0.989299 
28.73263488011099 1:-0.421295 2:0.0802322 3:-0.410637 4:-0.130203 5:-0.110257 6:-0.209494 7:-0.504454 8:-0.47673 9:-0.396533 10:-0.788005 11:-0.917961 12:-0.929224 13:-0.963896 14:-0.858918 15:0.693716 16:-0.519688 17:-0.0326356 18:-0.54914 19:-0.308987 20:-0.128944 21:-0.350462 22:-0.131941 23:-0.34864 24:-0.529702 25:-0.826395 26:-0.987146 27:-0.994265 28:-0.953529 29:-0.864971 30:0.775429 31:-0.0176678 32:-0.978203 33:-0.0108873 34:-0.986774 
3.06868939557574 1:-0.430417 2:-0.0092791 3:-0.449532 4:0.00525526 5:-0.164873 6:-0.16604 7:-0.502424 8:-0.340357 9:-0.412047 10:-0.787706 11:-0.968002 12:-0.986533 13:-0.967667 14:-0.896341 15:0.694079 16:-0.638952 17:-0.130573 18:-0.598293 19:-0.238793 20:-0.175428 21:-0.277285 22:-0.0196411 23:-0.19119 24:-0.62398 25:-0.905233 26:-0.99084 27:-0.996107 28:-0.953525 29:-0.866638 30:0.775294 31:-0.0154933 32:-0.995133 33:-0.0195972 34:-0.983293 
1.580754478900035 1:-0.916597 2:0.0226434 3:-0.926335 4:0.0502395 5:-0.0916083 6:-0.169782 7:-0.517627 8:0.633405 9:-0.917747 10:-0.981962 11:-0.99497 12:-0.996117 13:-0.967852 14:-0.901627 15:0.694173 16:-0.882459 17:-0.118984 18:-0.912944 19:-0.249468 20:-0.239808 21:-0.320106 22:-0.269145 23:0.404876 24:-0.898849 25:-0.941583 26:-0.999579 27:-0.999588 28:-0.953536 29:-0.865851 30:0.775279 31:-0.0307149 32:-0.943749 33:-0.0577028 34:-0.972492 
1.511375300936906 1:-0.902032 2:0.0849065 3:-0.971232 4:0.0830721 5:-0.0370305 6:-0.196771 7:-0.451221 8:1 9:-0.914499 10:-0.974333 11:-0.999323 12:-0.999007 13:-0.967861 14:-0.90221 15:0.694185 16:-0.848832 17:-0.0514605 18:-0.923016 19:-0.237385 20:-0.173458 21:-0.336133 22:-0.157338 23:0.716649 24:-0.881467 25:-0.915151 26:-0.99939 27:-0.999436 28:-0.953536 29:-0.865893 30:0.77528 31:0.0573525 32:-0.902477 33:0.00326619 34:-0.993041 
1.694376690214742 1:-0.897998 2:0.064463 3:-0.951276 4:0.103607 5:-0.0385398 6:-0.176138 7:-0.455329 8:0.595861 9:-0.907085 10:-0.974615 11:-0.999313 12:-0.999848 13:-0.967862 14:-0.902394 15:0.694185 16:-0.83924 17:-0.0570174 18:-0.903744 19:-0.221117 20:-0.173431 21:-0.31043 22:-0.170543 23:0.328335 24:-0.867994 25:-0.916713 26:-0.998929 27:-0.999041 28:-0.953536 29:-0.865735 30:0.775276 31:0.142158 32:-0.659478 33:-0.0114317 34:-0.992419 
0.8316933753572825 1:-0.731861 2:0.16778 3:-0.883011 4:0.195016 5:-0.0397583 6:-0.103617 7:-0.462769 8:0.436114 9:-0.753316 10:-0.91221 11:-0.992379 12:-0.987471 13:-0.967771 14:-0.897132 15:0.69418 16:-0.717992 17:-0.0157095 18:-0.841784 19:-0.120321 20:-0.174579 21:-0.233858 22:-0.183175 23:0.302089 24:-0.767538 25:-0.846211 26:-0.973255 27:-0.98261 28:-0.953359 29:-0.86083 30:0.774936 31:0.0769231 32:-0.657263 33:-0.00217746 34:-0.995975 
0.376063099965482 1:-0.791117 2:0.116575 3:-0.950055 4:0.206098 5:-0.0364753 6:-0.11362 7:-0.45485 8:0.660214 9:-0.816747 10:-0.933452 11:-0.988283 12:-0.98495 13:-0.967715 14:-0.896839 15:0.694158 16:-0.754574 17:0.00580582 18:-0.886878 19:-0.111833 20:-0.16828 21:-0.230315 22:-0.160011 23:0.413621 24:-0.807995 25:-0.854493 26:-0.968625 27:-0.979996 28:-0.953316 29:-0.860324 30:0.774555 31:0.0388693 32:-0.9921 33:-0.00217746 34:-0.996908 
5.632340057927892 1:-0.60723 2:0.138085 3:-0.652182 4:0.013552 5:-0.186795 6:-0.127245 7:-0.574188 8:-0.164147 9:-0.601841 10:-0.874281 11:-0.962642 12:-0.986839 13:-0.96778 14:-0.90014 15:0.693891 16:-0.638791 17:0.187462 18:-0.621562 19:-0.31016 20:-0.36109 21:-0.355767 22:-0.406222 23:-0.180881 24:-0.632823 25:-0.885852 26:-0.982852 27:-0.989055 28:-0.953565 29:-0.865531 30:0.774841 31:-0.0258222 32:-0.98429 33:0.00925422 34:-0.992386 
4.398708467855895 1:-0.740608 2:-0.073805 3:-0.731841 4:-0.0684758 5:-0.0791187 6:-0.238666 7:-0.511944 8:0.055351 9:-0.730288 10:-0.93346 11:-0.967377 12:-0.958893 13:-0.966764 14:-0.887525 15:0.69393 16:-0.85862 17:-0.278741 18:-0.802663 19:-0.260228 20:-0.26418 21:-0.380202 22:-0.278037 23:0.221185 24:-0.84139 25:-0.959698 26:-0.99797 27:-0.998716 28:-0.953535 29:-0.865875 30:0.775276 31:0.0171242 32:-0.998541 33:0.00326619 34:-0.998375 
13.41863894386681 1:-0.574971 2:0.148889 3:-0.616519 4:0.260274 5:-0.114593 6:-0.0907434 7:-0.51673 8:-0.185599 9:-0.567477 10:-0.859699 11:-0.97076 12:-0.964809 13:-0.967035 14:-0.885397 15:0.694341 16:-0.657141 17:0.0549604 18:-0.653382 19:-0.155059 20:-0.203737 21:-0.218924 22:-0.256136 23:-0.105275 24:-0.656653 25:-0.891912 26:-0.993799 27:-0.989819 28:-0.953502 29:-0.863389 30:0.775415 31:0.0366948 32:-0.979838 33:0.0326619 34:-0.98944 
21.35574983025696 1:-0.778501 2:0.135428 3:-0.797598 4:0.250682 5:-0.0595982 6:-0.110945 7:-0.489713 8:0.251482 9:-0.775453 10:-0.943661 11:-0.973545 12:-0.970654 13:-0.967259 14:-0.892179 15:0.694256 16:-0.832671 17:0.0416455 18:-0.837316 19:-0.170468 20:-0.181035 21:-0.244682 22:-0.215825 23:0.359885 24:-0.838307 25:-0.938131 26:-0.994485 27:-0.993258 28:-0.953516 29:-0.864471 30:0.775294 31:0.055178 32:-0.990992 33:0.0288514 34:-0.991292 
4.381579975475656 1:-0.746222 2:0.212143 3:-0.754851 4:-0.181504 5:-0.109841 6:-0.260657 7:-0.489703 8:-0.0381178 9:-0.739647 10:-0.932979 11:-0.896418 12:-0.890332 13:-0.959243 14:-0.861493 15:0.694183 16:-0.599016 17:0.190965 18:-0.664549 19:-0.305746 20:-0.0888513 21:-0.361937 22:-0.0774614 23:-0.272102 24:-0.624206 25:-0.826594 26:-0.989405 27:-0.992186 28:-0.953543 29:-0.866203 30:0.775501 31:0.626529 32:-0.804595 33:0.0925422 34:-0.9237 
7.864356950040222 1:-0.817825 2:0.0852966 3:-0.853172 4:0.142581 5:-0.0878469 6:-0.121432 7:-0.514129 8:0.230035 9:-0.819776 10:-0.954548 11:-0.998958 12:-0.997176 13:-0.967859 14:-0.901641 15:0.694186 16:-0.826162 17:0.0362585 18:-0.825015 19:-0.227101 20:-0.216804 21:-0.295731 22:-0.262932 23:0.242734 24:-0.829465 25:-0.938897 26:-0.999937 27:-0.999385 28:-0.953536 29:-0.865748 30:0.775279 31:0.0752922 32:-0.994173 33:0.028307 34:-0.990694 
10.05745816377856 1:-0.290001 2:-0.00899961 3:-0.375485 4:0.152454 5:-0.141486 6:-0.12252 7:-0.52411 8:-0.526146 9:-0.278798 10:-0.685293 11:-0.990949 12:-0.994733 13:-0.967839 14:-0.900601 15:0.694206 16:-0.277232 17:-0.138488 18:-0.355499 19:-0.14473 20:-0.274962 21:-0.254474 22:-0.2024 23:-0.541705 24:-0.30201 25:-0.678162 26:-0.972492 27:-0.988981 28:-0.953449 29:-0.861262 30:0.775037 31:-0.17097 32:-0.769503 33:-0.0381056 34:-0.983573 
6.600341424692466 1:-0.503108 2:0.169869 3:-0.516364 4:-0.0482272 5:-0.215948 6:-0.224011 7:-0.586558 8:-0.253402 9:-0.48676 10:-0.828042 11:-0.946667 12:-0.961803 13:-0.966752 14:-0.887345 15:0.693268 16:-0.713603 17:-0.0149296 18:-0.657829 19:-0.23544 20:-0.278919 21:-0.377777 22:-0.283108 23:0.0409251 24:-0.694051 25:-0.932942 26:-0.991943 27:-0.999042 28:-0.953537 29:-0.865969 30:0.775272 31:-0.0225605 32:-0.991242 33:-0.0272183 34:-0.990574 
3.274146232946153 1:-0.561525 2:0.230973 3:-0.572243 4:-0.0867724 5:-0.174995 6:-0.278996 7:-0.5762 8:-0.137332 9:-0.547239 10:-0.856597 11:-0.955102 12:-0.943077 13:-0.965809 14:-0.875642 15:0.693388 16:-0.739952 17:0.0274602 18:-0.668202 19:-0.267932 20:-0.229373 21:-0.420833 22:-0.282193 23:0.0930931 24:-0.714696 25:-0.944772 26:-0.997642 27:-0.998142 28:-0.953536 29:-0.865568 30:0.775292 31:0.0214732 32:-0.99319 33:-0.00272183 34:-0.985765 
9.035262914040576 1:-0.615897 2:0.0345929 3:-0.613577 4:-0.0490285 5:-0.158209 6:-0.1822 7:-0.583149 8:-0.295156 9:-0.601383 10:-0.8851 11:-0.955402 12:-0.967153 13:-0.967087 14:-0.890475 15:0.693433 16:-0.847173 17:-0.0515783 18:-0.811986 19:-0.29315 20:-0.250459 21:-0.350383 22:-0.273751 23:0.00750282 24:-0.837737 25:-0.957296 26:-0.99378 27:-0.996946 28:-0.953532 29:-0.865439 30:0.775244 31:-0.0106007 32:-0.998242 33:0.000544366 34:-0.998667 
1.845236656456021 1:-0.957364 2:0.0735413 3:-0.979203 4:0.0454132 5:-0.0977066 6:-0.172255 7:-0.497822 8:0.860558 9:-0.962742 10:-0.989529 11:-0.993421 12:-0.995508 13:-0.967844 14:-0.901511 15:0.694177 16:-0.820449 17:-0.0241842 18:-0.786068 19:-0.293637 20:-0.19661 21:-0.345015 22:-0.22059 23:0.204312 24:-0.810884 25:-0.950922 26:-0.993339 27:-0.997516 28:-0.953531 29:-0.865342 30:0.775279 31:0.515086 32:-0.752774 33:0.0266739 34:-0.991519 
16.57583504944522 1:-0.720782 2:0.108087 3:-0.755637 4:0.0961045 5:-0.11009 6:-0.120894 7:-0.524031 8:-0.0331384 9:-0.718362 10:-0.922334 11:-0.996487 12:-0.99926 13:-0.967863 14:-0.902658 15:0.694185 16:-0.859181 17:-0.0221938 18:-0.835648 19:-0.247337 20:-0.22827 21:-0.307379 22:-0.260193 23:0.21243 24:-0.854424 25:-0.95577 26:-0.999422 27:-0.999769 28:-0.953536 29:-0.865816 30:0.775279 31:0.0627888 32:-0.981283 33:0.0484486 34:-0.998653 
5.608539099656518 1:-0.594719 2:-0.29696 3:-0.63093 4:0.131685 5:-0.178038 6:-0.144589 7:-0.517894 8:-0.334994 9:-0.587021 10:-0.863188 11:-0.980839 12:-0.996268 13:-0.967861 14:-0.90265 15:0.69422 16:-0.709459 17:-0.409129 18:-0.747534 19:-0.226715 20:-0.311355 21:-0.308726 22:-0.276751 23:-0.233052 24:-0.725915 25:-0.872859 26:-0.990212 27:-0.998404 28:-0.953537 29:-0.865873 30:0.775298 31:0.0236477 32:-0.990539 33:0.0212303 34:-0.99622 
1.068512582237417 1:-0.74216 2:-0.0536626 3:-0.768251 4:-0.0322125 5:-0.0225894 6:-0.239959 7:-0.404318 8:-0.207816 9:-0.738918 10:-0.930491 11:-0.981917 12:-0.972462 13:-0.967441 14:-0.892426 15:0.694435 16:-0.711868 17:-0.0931036 18:-0.799095 19:-0.259323 20:-0.242564 21:-0.392191 22:-0.194403 23:-0.218681 24:-0.747257 25:-0.864789 26:-0.994586 27:-0.999388 28:-0.953536 29:-0.865609 30:0.775282 31:0.154118 32:-0.984916 33:0.104518 34:-0.993294 
2.805717657910982 1:-0.722576 2:-0.0497086 3:-0.758786 4:-0.0360831 5:-0.0394394 6:-0.255433 7:-0.435986 8:-0.251487 9:-0.720507 10:-0.922404 11:-0.983737 12:-0.970876 13:-0.967403 14:-0.890908 15:0.694322 16:-0.710806 17:-0.0973067 18:-0.788247 19:-0.257685 20:-0.287573 21:-0.408003 22:-0.23046 23:-0.212121 24:-0.742417 25:-0.869693 26:-0.987509 27:-0.999019 28:-0.953534 29:-0.865695 30:0.775282 31:0.107366 32:-0.996349 33:0.0772999 34:-0.996695 
32 1:-0.858219 2:0.183784 3:-0.859538 4:0.0789192 5:-0.138392 6:-0.2246 7:-0.52708 8:0.201303 9:-0.855106 10:-0.967767 11:-0.993251 12:-0.997101 13:-0.967855 14:-0.902251 15:0.694175 16:-0.894426 17:0.0858774 18:-0.879222 19:-0.252856 20:-0.276666 21:-0.359483 22:-0.264035 23:0.275226 24:-0.893452 25:-0.95765 26:-0.995796 27:-0.999178 28:-0.953536 29:-0.865823 30:0.775274 31:0.0611579 32:-0.995502 33:0.0353838 34:-0.994466 
5.610193991039112 1:-0.811309 2:0.196454 3:-0.844058 4:0.0467437 5:-0.185804 6:-0.229404 7:-0.547543 8:0.0434758 9:-0.81245 10:-0.951722 11:-0.980198 12:-0.990821 13:-0.967794 14:-0.901379 15:0.694093 16:-0.860335 17:0.11718 18:-0.849438 19:-0.265253 20:-0.306878 21:-0.385096 22:-0.303767 23:0.0481116 24:-0.860454 25:-0.947357 26:-0.994048 27:-0.997392 28:-0.953534 29:-0.865816 30:0.77525 31:0.0497418 32:-0.997041 33:0.0272183 34:-0.995641 
10.10569166765438 1:-0.789311 2:0.104734 3:-0.766736 4:0.141631 5:-0.0798999 6:-0.174014 7:-0.520203 8:-0.0377343 9:-0.778359 10:-0.951349 11:-0.996587 12:-0.998167 13:-0.96786 14:-0.901922 15:0.694189 16:-0.847038 17:0.128791 18:-0.930117 19:-0.228075 20:-0.197684 21:-0.349086 22:-0.278029 23:0.70759 24:-0.883061 25:-0.905493 26:-0.994969 27:-0.99966 28:-0.953536 29:-0.865813 30:0.775279 31:0.0758358 32:-0.993838 33:0.0152422 34:-0.990534 
6.573284682242069 1:-0.689572 2:0.217519 3:-0.760942 4:-0.0360859 5:-0.191663 6:-0.224923 7:-0.584031 8:-0.180619 9:-0.69312 10:-0.904634 11:-0.960947 12:-0.967754 13:-0.967125 14:-0.891791 15:0.693575 16:-0.786065 17:0.171727 18:-0.834933 19:-0.317819 20:-0.331099 21:-0.409348 22:-0.355056 23:-0.0390475 24:-0.807933 25:-0.900592 26:-0.990278 27:-0.989507 28:-0.95351 29:-0.864425 30:0.774985 31:0.0388693 32:-0.989442 33:0.0250408 34:-0.996175 
8.93916288910798 1:-0.721021 2:0.0679688 3:-0.646906 4:0.376747 5:-0.21155 6:-0.151884 7:-0.572495 8:-0.206285 9:-0.696696 10:-0.934675 11:-0.846116 12:-0.902389 13:-0.959487 14:-0.870947 15:0.698254 16:-0.841788 17:-0.0775685 18:-0.80979 19:-0.162391 20:-0.321551 21:-0.343389 22:-0.331319 23:-0.0431064 24:-0.83349 25:-0.955034 26:-0.95889 27:-0.991765 28:-0.953527 29:-0.865272 30:0.775757 31:0.0274531 32:-0.995686 33:0.0255852 34:-0.995886 
0.06526043250142793 1:-0.965864 2:0.175376 3:-0.958026 4:0.0947016 5:-0.0690082 6:-0.178661 7:-0.510375 8:0.443014 9:-0.965649 10:-0.991961 11:-1 12:-0.999813 13:-0.967862 14:-0.902321 15:0.694185 16:-0.990298 17:0.0387037 18:-0.985439 19:-0.237847 20:-0.206808 21:-0.33698 22:-0.249411 23:0.492349 24:-0.994882 25:-0.974588 26:-0.999232 27:-0.999916 28:-0.953536 29:-0.865786 30:0.775279 31:0.0366948 32:-0.986143 33:0.011976 34:-0.997228 
1.475361028402732 1:-0.702975 2:0.0515821 3:-0.77882 4:0.0605674 5:-0.129649 6:-0.166446 7:-0.552101 8:-0.159167 9:-0.708013 10:-0.910921 11:-0.99303 12:-0.995991 13:-0.967858 14:-0.902153 15:0.694162 16:-0.765421 17:-0.110937 18:-0.819155 19:-0.184785 20:-0.2919 21:-0.296705 22:-0.271478 23:-0.104971 24:-0.78882 25:-0.899472 26:-0.985293 27:-0.995451 28:-0.953522 29:-0.865077 30:0.775356 31:-0.0638761 32:-0.987561 33:0.00870985 34:-0.995374 
12.02150371784414 1:-0.815132 2:-0.0325633 3:-0.854429 4:0.183525 5:-0.0481185 6:-0.156938 7:-0.477989 8:0.117408 9:-0.817759 10:-0.95302 11:-0.989076 12:-0.992044 13:-0.967807 14:-0.8998 15:0.694185 16:-0.833057 17:-0.202313 18:-0.905757 19:-0.16791 20:-0.198912 21:-0.291457 22:-0.202954 23:0.182449 24:-0.86486 25:-0.908505 26:-0.984736 27:-0.994025 28:-0.953509 29:-0.864476 30:0.775229 31:0.0328894 32:-0.998139 33:0.00870985 34:-0.999308 
10.34486732438829 1:-0.751374 2:-0.0425554 3:-0.75954 4:0.339651 5:-0.160152 6:-0.0852048 7:-0.567428 8:-0.0101538 9:-0.744933 10:-0.935718 11:-0.920584 12:-0.921714 13:-0.963469 14:-0.875224 15:0.695943 16:-0.847562 17:-0.145604 18:-0.844446 19:-0.134599 20:-0.299741 21:-0.226695 22:-0.308221 23:0.103093 24:-0.850462 25:-0.945192 26:-0.979956 27:-0.984202 28:-0.953418 29:-0.863306 30:0.775745 31:0.125306 32:-0.934072 33:0.0353838 34:-0.994199 
1.269887428567852 1:-0.679407 2:0.215708 3:-0.676492 4:-0.0328779 5:-0.125522 6:-0.221243 7:-0.539997 8:-0.251103 9:-0.66757 10:-0.909825 11:-0.975468 12:-0.972977 13:-0.96737 14:-0.891581 15:0.693963 16:-0.794136 17:0.0830496 18:-0.755689 19:-0.268967 20:-0.238908 21:-0.406814 22:-0.311169 23:-0.157138 24:-0.782574 25:-0.943516 26:-0.998871 27:-0.997711 28:-0.953536 29:-0.86563 30:0.775291 31:-0.100843 32:-0.983022 33:-0.034295 34:-0.974517 
1.723741093216652 1:-0.401767 2:0.0660239 3:-0.387667 4:0.33048 5:-0.348283 6:0.00452743 7:-0.760238 8:-0.485923 9:-0.375459 10:-0.777286 11:-0.883421 12:-0.89151 13:-0.960989 14:-0.872169 15:0.702706 16:-0.546142 17:-0.117435 18:-0.576928 19:-0.0999859 20:-0.358901 21:-0.178001 22:-0.475833 23:-0.297407 24:-0.557103 25:-0.835627 26:-0.976877 27:-0.964964 28:-0.953477 29:-0.860719 30:0.778426 31:-0.000815439 32:-0.998023 33:0.00816549 34:-0.993033 
0.1509749025502192 1:-0.431454 2:-0.0549541 3:-0.43985 4:-0.100168 5:-0.136891 6:-0.212136 7:-0.476018 8:-0.407777 9:-0.410976 10:-0.789784 11:-0.933307 12:-0.945329 13:-0.965429 14:-0.869739 15:0.694367 16:-0.540145 17:-0.279741 18:-0.597828 19:-0.282281 20:-0.227077 21:-0.345743 22:-0.21651 23:-0.203061 24:-0.561347 25:-0.810477 26:-0.995765 27:-0.998454 28:-0.953534 29:-0.865309 30:0.775283 31:0.0176678 32:-0.994956 33:-0.0359281 34:-0.991894 
17.98608131648037 1:-0.735814 2:0.0285748 3:-0.756996 4:0.175745 5:-0.157783 6:-0.114566 7:-0.554718 8:-0.0955776 9:-0.731305 10:-0.929424 11:-0.986117 12:-0.989414 13:-0.967785 14:-0.900375 15:0.694268 16:-0.892101 17:-0.0688367 18:-0.86554 19:-0.242156 20:-0.227281 21:-0.312549 22:-0.206151 23:0.281471 24:-0.886723 25:-0.963883 26:-0.99853 27:-0.999988 28:-0.953536 29:-0.865775 30:0.775279 31:-0.0372384 32:-0.994281 33:-0.0266739 34:-0.994499 
32 1:-0.269349 2:0.0237371 3:-0.345837 4:0.0789059 5:-0.10559 6:-0.157991 7:-0.485411 8:-0.517335 9:-0.255429 10:-0.672967 11:-0.995956 12:-0.999112 13:-0.967861 14:-0.902054 15:0.694183 16:-0.484475 17:-0.0744302 18:-0.532779 19:-0.257144 20:-0.184589 21:-0.311896 22:-0.139604 23:-0.297094 24:-0.501153 25:-0.80007 26:-0.997744 27:-0.999209 28:-0.953536 29:-0.865966 30:0.775276 31:-0.0084262 32:-0.990247 33:-0.00653239 34:-0.994068 
25.85955220532596 1:-0.686821 2:0.00907126 3:-0.673136 4:0.132582 5:-0.213646 6:-0.0994268 7:-0.622097 8:-0.060719 9:-0.673144 10:-0.915391 11:-0.977589 12:-0.989981 13:-0.967885 14:-0.904809 15:0.694345 16:-0.803173 17:-0.122453 18:-0.848535 19:-0.214831 20:-0.314518 21:-0.282641 22:-0.33368 23:0.165262 24:-0.823975 25:-0.914391 26:-0.995317 27:-0.996174 28:-0.953537 29:-0.866052 30:0.775331 31:-0.0720304 32:-0.943443 33:-0.0141535 34:-0.994894 
28.74630113065829 1:-0.619886 2:0.117601 3:-0.674336 4:-0.0511635 5:-0.191617 6:-0.162035 7:-0.578301 8:-0.156103 9:-0.616964 10:-0.878803 11:-0.939007 12:-0.96617 13:-0.966936 14:-0.890465 15:0.69322 16:-0.642161 17:0.114475 18:-0.749399 19:-0.339555 20:-0.318508 21:-0.369846 22:-0.279788 23:0.15433 24:-0.684093 25:-0.822802 26:-0.966389 27:-0.989195 28:-0.953447 29:-0.862978 30:0.774965 31:0.0138625 32:-0.99425 33:0.0440936 34:-0.981065 
5.436386234940477 1:-0.762987 2:0.0179217 3:-0.749423 4:0.160787 5:-0.16822 6:-0.0998513 7:-0.57518 8:0.150735 9:-0.752687 10:-0.942279 11:-0.987618 12:-0.990632 13:-0.967812 14:-0.901648 15:0.694267 16:-0.864061 17:-0.0857094 18:-0.898632 19:-0.213476 20:-0.270315 21:-0.28459 22:-0.301349 23:0.453299 24:-0.881719 25:-0.935808 26:-0.998488 27:-0.997579 28:-0.953536 29:-0.865752 30:0.775294 31:0.0497418 32:-0.99026 33:0.0146979 34:-0.996886 
11.41147083749371 1:-0.570433 2:-0.186754 3:-0.611141 4:-0.206807 5:0.0661793 6:-0.339694 7:-0.364605 8:-0.226204 9:-0.56257 10:-0.854881 11:-0.892894 12:-0.855565 13:-0.954837 14:-0.829427 15:0.697702 16:-0.579274 17:-0.253746 18:-0.677311 19:-0.417704 20:-0.0357908 21:-0.549499 22:0.00636595 23:-0.120589 24:-0.616633 25:-0.802319 26:-0.979026 27:-0.951699 28:-0.953042 29:-0.854006 30:0.778992 31:-0.0443055 32:-0.991992 33:-0.00979858 34:-0.995228 
4.011766525964712 1:-0.917921 2:0.0128189 3:-0.913873 4:0.113218 5:-0.112006 6:-0.142638 7:-0.512167 8:0.384408 9:-0.916357 10:-0.983138 11:-0.997263 12:-0.999175 13:-0.967862 14:-0.902437 15:0.694186 16:-0.968911 17:-0.0959231 18:-0.959584 19:-0.248755 20:-0.21329 21:-0.323015 22:-0.202745 23:0.625431 24:-0.971424 25:-0.973304 26:-0.999386 27:-0.999974 28:-0.953536 29:-0.865776 30:0.775279 31:-0.0899701 32:-0.986941 33:-0.072945 34:-0.994708 
4.981413480902579 1:-0.926613 2:0.028669 3:-0.920848 4:0.121814 5:-0.0992348 6:-0.130421 7:-0.503667 8:0.405855 9:-0.925086 10:-0.985134 11:-0.998515 12:-0.999006 13:-0.967861 14:-0.902261 15:0.694185 16:-0.973829 17:-0.0659804 18:-0.958755 19:-0.237837 20:-0.20546 21:-0.308725 22:-0.194935 23:0.648863 24:-0.974213 25:-0.97592 26:-0.9997 27:-0.999882 28:-0.953536 29:-0.865774 30:0.775279 31:-0.108997 32:-0.985046 33:-0.0549809 34:-0.991219 
8.949959022602062 1:-0.792165 2:0.119123 3:-0.813465 4:0.200753 5:-0.0663286 6:-0.143976 7:-0.487683 8:0.19134 9:-0.790162 10:-0.947903 11:-0.986254 12:-0.987806 13:-0.967745 14:-0.898247 15:0.6942 16:-0.812468 17:0.0331797 18:-0.798608 19:-0.20449 20:-0.21203 21:-0.299423 22:-0.193452 23:0.350826 24:-0.810659 25:-0.940462 26:-0.996149 27:-0.998255 28:-0.953535 29:-0.865449 30:0.775268 31:0.00135906 32:-0.987902 33:0.0185084 34:-0.990561 
8.763136759888104 1:-0.803113 2:0.0844087 3:-0.844899 4:0.0930221 5:-0.105999 6:-0.147889 7:-0.500228 8:0.223519 9:-0.805711 10:-0.949501 11:-0.997104 12:-0.99956 13:-0.967862 14:-0.902456 15:0.694184 16:-0.795641 17:0.0389048 18:-0.852242 19:-0.256198 20:-0.250951 21:-0.334446 22:-0.255918 23:0.260549 24:-0.820639 25:-0.90616 26:-0.998487 27:-0.999502 28:-0.953536 29:-0.865803 30:0.775278 31:0.00135906 32:-0.997035 33:-0.0157866 34:-0.993833 
4.048717425462037 1:-0.446417 2:-0.0642533 3:-0.46437 4:0.390543 5:-0.139373 6:-0.0862948 7:-0.519508 8:-0.514271 9:-0.428515 10:-0.796467 11:-0.881813 12:-0.889899 13:-0.958639 14:-0.83614 15:0.695405 16:-0.494102 17:-0.189503 18:-0.579596 19:-0.105552 20:-0.287469 21:-0.236158 22:-0.28244 23:-0.42518 24:-0.525236 25:-0.77695 26:-0.95739 27:-0.978078 28:-0.953225 29:-0.858641 30:0.775994 31:0.0617015 32:-0.979412 33:0.0435493 34:-0.995108 
4.616157159962337 1:-0.552688 2:-0.0562376 3:-0.602807 4:0.327353 5:-0.117107 6:-0.140341 7:-0.556438 8:-0.379814 9:-0.545937 10:-0.847447 11:-0.917456 12:-0.935719 13:-0.96457 14:-0.869058 15:0.695722 16:-0.610265 17:-0.175075 18:-0.652747 19:-0.141646 20:-0.278778 21:-0.276917 22:-0.303346 23:-0.276163 24:-0.626779 25:-0.85156 26:-0.971731 27:-0.987825 28:-0.953456 29:-0.86285 30:0.775776 31:0.0714868 32:-0.977821 33:0.0326619 34:-0.995841 
3.120710878014724 1:-0.341956 2:-0.00306716 3:-0.343942 4:0.247427 5:-0.147372 6:-0.136172 7:-0.465808 8:-0.438806 9:-0.316245 10:-0.737342 11:-0.956893 12:-0.972646 13:-0.96717 14:-0.884332 15:0.694096 16:-0.475552 17:-0.113601 18:-0.265612 19:-0.201824 20:-0.354874 21:-0.321931 22:-0.276818 23:-0.398625 24:-0.392815 25:-0.933195 26:-0.970409 27:-0.996502 28:-0.953533 29:-0.865778 30:0.775391 31:-0.0149497 32:-0.991821 33:-0.00381056 34:-0.994359 
3.733102478111095 1:-0.241322 2:0.00563521 3:-0.279809 4:0.326277 5:-0.150157 6:-0.113728 7:-0.457043 8:-0.593948 9:-0.21852 10:-0.661388 11:-0.915604 12:-0.934814 13:-0.964321 14:-0.852547 15:0.693547 16:-0.328108 17:-0.0731851 18:-0.289769 19:-0.19161 20:-0.287469 21:-0.338673 22:-0.235413 23:-0.5995 24:-0.308903 25:-0.790692 26:-0.976269 27:-0.997381 28:-0.953527 29:-0.865144 30:0.775311 31:-0.00788258 32:-0.993398 33:0.0016331 34:-0.99566 
2.960296866222475 1:-0.178976 2:-0.0762842 3:-0.146819 4:0.347959 5:-0.285495 6:-0.0807319 7:-0.551716 8:-0.702356 9:-0.139224 10:-0.631038 11:-0.855686 12:-0.909867 13:-0.960474 14:-0.842761 15:0.696681 16:-0.260356 17:-0.000750092 18:-0.315174 19:-0.22051 20:-0.41895 21:-0.360219 22:-0.285645 23:-0.648859 24:-0.275843 25:-0.688726 26:-0.943412 27:-0.99641 28:-0.953558 29:-0.867035 30:0.775355 31:-0.00298994 32:-0.99587 33:-0.0244965 34:-0.994033 
8.747537195648313 1:-0.411279 2:0.0516058 3:-0.394683 4:0.135586 5:-0.16132 6:-0.186895 7:-0.535964 8:-0.479412 9:-0.384888 10:-0.783325 11:-0.984783 12:-0.996614 13:-0.967869 14:-0.903273 15:0.69421 16:-0.5256 17:-0.189016 18:-0.403717 19:-0.250365 20:-0.387442 21:-0.318757 22:-0.264405 23:-0.401124 24:-0.477537 25:-0.907398 26:-0.960894 27:-0.997877 28:-0.953545 29:-0.866266 30:0.775265 31:-0.00353357 32:-0.993316 33:-0.00598802 34:-0.99692 
-0.04147649833964587 1:-0.482523 2:0.0253793 3:-0.599108 4:0.594305 5:0.0578996 6:0.0094294 7:-0.33394 8:-0.217011 9:-0.486046 10:-0.80014 11:-0.692972 12:-0.667582 13:-0.89141 14:-0.710021 15:0.669672 16:-0.478772 17:-0.0155551 18:-0.621149 19:-0.0132733 20:-0.111183 21:-0.126512 22:-0.113533 23:-0.163073 24:-0.531518 25:-0.730658 26:-0.922229 27:-0.936019 28:-0.951479 29:-0.842979 30:0.769785 31:-0.0366948 32:-0.988584 33:0.0228634 34:-0.993094 
-0.442119884934535 1:-0.402085 2:0.103656 3:-0.459 4:0.254724 5:-0.292839 6:-0.104535 7:-0.721255 8:-0.389007 9:-0.390069 10:-0.76404 11:-0.924226 12:-0.947936 13:-0.966801 14:-0.896239 15:0.697366 16:-0.38519 17:0.0824879 18:-0.39278 19:-0.230198 20:-0.559907 21:-0.236849 22:-0.646886 23:-0.379569 24:-0.384581 25:-0.781561 26:-0.966116 27:-0.965538 28:-0.953953 29:-0.877386 30:0.777884 31:0.100299 32:-0.982068 33:-0.028307 34:-0.915659 
-0.2072374919178146 1:-0.204763 2:0.0886129 3:-0.387954 4:-0.00175674 5:-0.184669 6:-0.224501 7:-0.626881 8:-0.487072 9:-0.209456 10:-0.600072 11:-0.977631 12:-0.977447 13:-0.967624 14:-0.894232 15:0.69376 16:-0.305876 17:0.150176 18:-0.377905 19:-0.509218 20:-0.401082 21:-0.654772 22:-0.667724 23:-0.349578 24:-0.328729 25:-0.692643 26:-0.954382 27:-0.883597 28:-0.953713 29:-0.834327 30:0.748353 31:0.029084 32:-0.987898 33:-0.010343 34:-0.987332 
-4.393992417927401 1:-0.652339 2:0.17597 3:-0.739549 4:0.0462969 5:-0.15644 6:-0.233347 7:-0.59093 8:0.0250884 9:-0.657433 10:-0.887871 11:-0.991771 12:-0.990558 13:-0.967821 14:-0.901148 15:0.694116 16:-0.409233 17:0.0700899 18:-0.540154 19:-0.285755 20:-0.299235 21:-0.346208 22:-0.364311 23:-0.346766 24:-0.456428 25:-0.702673 26:-0.995086 27:-0.994911 28:-0.953545 29:-0.866182 30:0.775222 31:0.609677 32:-0.695328 33:0.189984 34:-0.971583 
-0.2545875012253878 1:-0.582031 2:0.0360174 3:-0.67459 4:-0.0682346 5:-0.0187158 6:-0.270075 7:-0.453938 8:-0.0668477 9:-0.585106 10:-0.855942 11:-0.971985 12:-0.956422 13:-0.966738 14:-0.880123 15:0.694207 16:-0.343644 17:0.104317 18:-0.399736 19:-0.350802 20:-0.303431 21:-0.419645 22:-0.468643 23:-0.519213 24:-0.360994 25:-0.726443 26:-0.983933 27:-0.979139 28:-0.953642 29:-0.862709 30:0.774274 31:0.877141 32:-0.857207 33:0.0255852 34:-0.986152 
-2.088422879055614 1:-0.625517 2:0.0489311 3:-0.685174 4:0.0627923 5:-0.0463179 6:-0.22284 7:-0.477948 8:-0.0699121 9:-0.62389 10:-0.880819 11:-0.999285 12:-0.996987 13:-0.967859 14:-0.900904 15:0.694182 16:-0.445869 17:0.109265 18:-0.492101 19:-0.266071 20:-0.331329 21:-0.371585 22:-0.440389 23:-0.419243 24:-0.461114 25:-0.780675 26:-0.999557 27:-0.992121 28:-0.95354 29:-0.867707 30:0.775236 31:0.160098 32:-0.536698 33:-0.216658 34:-0.984493 
-6.665063142503522 1:-0.689133 2:0.159089 3:-0.746828 4:0.0497625 5:-0.171404 6:-0.237624 7:-0.582313 8:0.0867618 9:-0.689912 10:-0.907071 11:-0.98792 12:-0.990611 13:-0.967813 14:-0.901621 15:0.694103 16:-0.507574 17:0.270123 18:-0.547048 19:-0.277009 20:-0.47749 21:-0.384165 22:-0.522687 23:-0.299906 24:-0.521239 25:-0.79979 26:-0.977682 27:-0.980413 28:-0.953673 29:-0.869985 30:0.774322 31:0.456918 32:-0.571955 33:-0.0740338 34:-0.979493 
-2.537067982747795 1:-0.725129 2:0.144106 3:-0.793891 4:0.125798 5:-0.129511 6:-0.164974 7:-0.552095 8:0.251097 9:-0.729719 10:-0.919713 11:-0.99513 12:-0.997659 13:-0.967865 14:-0.902884 15:0.694193 16:-0.515276 17:0.0635424 18:-0.565593 19:-0.171468 20:-0.349031 21:-0.215179 22:-0.39209 23:-0.251795 24:-0.533236 25:-0.809414 26:-0.993251 27:-0.987187 28:-0.953507 29:-0.865623 30:0.77561 31:0.146507 32:-0.226614 33:0.185629 34:-0.988399 
-0.2160390756246774 1:0.0470678 2:-0.146975 3:-0.139579 4:0.184337 5:-0.124342 6:-0.270132 7:-0.561832 8:-0.617698 9:0.0527719 10:-0.377277 11:-0.96584 12:-0.993282 13:-0.967847 14:-0.898784 15:0.694294 16:0.146358 17:-0.471057 18:-0.101703 19:-0.359563 20:-0.247254 21:-0.521417 22:-0.301165 23:-0.595126 24:0.0633 25:-0.190619 26:-0.998581 27:-0.979665 28:-0.953488 29:-0.854907 30:0.775104 31:0.282957 32:-0.680324 33:0.238977 34:-0.99662 
-17.21687620428797 1:-0.739999 2:0.0451724 3:-0.705096 4:0.101105 5:-0.219965 6:-0.154419 7:-0.701908 8:0.0151282 9:-0.724397 10:-0.936955 11:-0.98223 12:-0.987248 13:-0.968004 14:-0.906993 15:0.694194 16:-0.727883 17:-0.0835967 18:-0.747161 19:-0.213636 20:-0.321999 21:-0.28917 22:-0.444374 23:0.0543568 24:-0.737416 25:-0.9046 26:-0.999262 27:-0.99183 28:-0.953546 29:-0.867103 30:0.775272 31:-0.0415874 32:-0.978305 33:-0.0473598 34:-0.993826 
-27.69740866684308 1:-0.840323 2:0.0977267 3:-0.870707 4:0.12237 5:-0.0473769 6:-0.186365 7:-0.487815 8:0.2419 9:-0.842266 10:-0.961395 11:-0.997833 12:-0.999773 13:-0.967862 14:-0.902255 15:0.694185 16:-0.85403 17:-0.0612023 18:-0.871183 19:-0.226104 20:-0.171896 21:-0.326232 22:-0.219376 23:0.272725 24:-0.864826 25:-0.940139 26:-0.997169 27:-0.999679 28:-0.953536 29:-0.865731 30:0.775279 31:0.120957 32:-0.991958 33:0.0811105 34:-0.924911 
-14.12131660502549 1:-0.639073 2:0.0627068 3:-0.755521 4:0.0490131 5:-0.126504 6:-0.202446 7:-0.551746 8:-0.0783394 9:-0.649464 10:-0.878932 11:-0.994321 12:-0.993907 13:-0.967843 14:-0.901008 15:0.694157 16:-0.82335 17:-0.103041 18:-0.830001 19:-0.198148 20:-0.206278 21:-0.302101 22:-0.22565 23:0.35864 24:-0.829606 25:-0.936314 26:-0.994867 27:-0.9978 28:-0.953532 29:-0.865345 30:0.775281 31:-0.0328894 32:-0.98692 33:0.0201415 34:-0.980918 
-32 1:-0.752842 2:0.0715823 3:-0.837779 4:0.154461 5:-0.0961093 6:-0.1699 7:-0.526145 8:0.114344 9:-0.761905 10:-0.928395 11:-0.99402 12:-0.996453 13:-0.967854 14:-0.901412 15:0.694198 16:-0.850061 17:-0.0704729 18:-0.884563 19:-0.187972 20:-0.202555 21:-0.282668 22:-0.225877 23:0.362385 24:-0.867463 25:-0.932308 26:-0.994675 27:-0.996459 28:-0.953529 29:-0.865064 30:0.775284 31:0.0144061 32:-0.995904 33:0.0212303 34:-0.973817 
-9.324118981640558 1:-0.64878 2:0.0958044 3:-0.740585 4:-0.0510359 5:-0.14762 6:-0.210251 7:-0.61066 8:-0.0147509 9:-0.654641 10:-0.886484 11:-0.964599 12:-0.964226 13:-0.967123 14:-0.889136 15:0.693331 16:-0.846683 17:-0.0487347 18:-0.85028 19:-0.22798 20:-0.215972 21:-0.31394 22:-0.278362 23:0.290844 24:-0.852149 25:-0.94345 26:-0.999171 27:-0.99939 28:-0.953536 29:-0.865787 30:0.775279 31:-0.0703996 32:-0.990574 33:0.0179641 34:-0.994159 
-4.032560555161093 1:-0.675465 2:0.135011 3:-0.640394 4:0.0299332 5:-0.298124 6:-0.126628 7:-0.703132 8:-0.257232 9:-0.656987 10:-0.913333 11:-0.930525 12:-0.974585 13:-0.968309 14:-0.907794 15:0.693228 16:-0.739268 17:-0.0125265 18:-0.73086 19:-0.172675 20:-0.395478 21:-0.20531 22:-0.424049 23:-0.159013 24:-0.738348 25:-0.920073 26:-0.987316 27:-0.984231 28:-0.953487 29:-0.866203 30:0.775916 31:0.120413 32:-0.931048 33:0.0517148 34:-0.964629 
-8.653621377474119 1:-0.53602 2:0.0140354 3:-0.589719 4:-0.24401 5:-0.00120766 6:-0.340188 7:-0.383585 8:-0.195941 9:-0.529255 10:-0.839149 11:-0.875844 12:-0.826824 13:-0.949482 14:-0.809583 15:0.699374 16:-0.61503 17:-0.145164 18:-0.708599 19:-0.453966 20:-0.107108 21:-0.541457 22:-0.0842887 23:-0.0181156 24:-0.651262 25:-0.823899 26:-0.95369 27:-0.943264 28:-0.952315 29:-0.849634 30:0.780134 31:0.0399565 32:-0.998394 33:0.0337507 34:-0.997361 
-6.45103000547614 1:-0.625424 2:0.219124 3:-0.630459 4:0.108164 5:-0.174826 6:-0.219557 7:-0.579372 8:-0.0794887 9:-0.612808 10:-0.88665 11:-0.98546 12:-0.995732 13:-0.967883 14:-0.904297 15:0.694164 16:-0.605413 17:0.243378 18:-0.620477 19:-0.314696 20:-0.360161 21:-0.404952 22:-0.428641 23:-0.082784 24:-0.611308 25:-0.853675 26:-0.991834 27:-0.986309 28:-0.953546 29:-0.864989 30:0.774822 31:0.0970372 32:-0.897288 33:0.146979 34:-0.993974 
-29.8922395722447 1:-0.588433 2:0.132696 3:-0.60779 4:0.0900984 5:-0.217288 6:-0.182515 7:-0.635645 8:-0.151122 9:-0.577069 10:-0.869413 11:-0.977418 12:-0.990674 13:-0.967949 14:-0.906597 15:0.694111 16:-0.576109 17:0.131605 18:-0.593535 19:-0.345983 20:-0.411439 21:-0.399796 22:-0.490931 23:-0.14808 24:-0.582428 25:-0.849771 26:-0.974281 27:-0.975617 28:-0.953618 29:-0.864845 30:0.77341 31:-0.000815439 32:-0.986232 33:0.0435493 34:-0.975106 
-1.06915723279072 1:0.0018556 2:0.0946882 3:-0.228062 4:0.447818 5:-0.219977 6:-0.0328092 7:-0.606346 8:-0.644131 9:-0.00313338 10:-0.409654 11:-0.833093 12:-0.830345 13:-0.947427 14:-0.746929 15:0.701555 16:-0.21892 17:0.172396 18:-0.190115 19:-0.301795 20:-0.415835 21:-0.357826 22:-0.579165 23:-0.570446 24:-0.20158 25:-0.726008 26:-0.991139 27:-0.977323 28:-0.953695 29:-0.870604 30:0.775187 31:-0.050829 32:-0.877004 33:-0.0114317 34:-0.984285 
-3.278372042949381 1:-0.619901 2:0.142736 3:-0.655001 4:0.0925993 5:-0.198197 6:-0.199074 7:-0.60899 8:-0.0917474 9:-0.613088 10:-0.881272 11:-0.98203 12:-0.993079 13:-0.967905 14:-0.905265 15:0.694129 16:-0.617788 17:0.133998 18:-0.624899 19:-0.327634 20:-0.381072 21:-0.381742 22:-0.454293 23:-0.0859117 24:-0.62083 25:-0.869961 26:-0.981496 27:-0.98286 28:-0.95359 29:-0.865353 30:0.774373 31:0.0263659 32:-0.924414 33:0.0353838 34:-0.968663 
-11.77375341268629 1:-0.532448 2:0.126376 3:-0.608793 4:0.219552 5:-0.136584 6:-0.118631 7:-0.532526 8:-0.177171 9:-0.53008 10:-0.833478 11:-0.978086 12:-0.980002 13:-0.967566 14:-0.893238 15:0.694322 16:-0.589411 17:0.211354 18:-0.589844 19:-0.262101 20:-0.347609 21:-0.287639 22:-0.397743 23:-0.0855979 24:-0.589418 25:-0.858634 26:-0.989862 27:-0.994185 28:-0.953557 29:-0.867152 30:0.775334 31:-0.00788258 32:-0.991831 33:-0.0457267 34:-0.926567 
-3.69603160973928 1:-0.0861483 2:-0.20338 3:-0.12124 4:-0.00625646 5:0.027034 6:-0.0177831 7:-0.403811 8:-0.6403 9:-0.0558325 10:-0.538174 11:-0.933376 12:-0.988491 13:-0.967758 14:-0.895887 15:0.694497 16:0.06885 17:-0.459222 18:-0.0848491 19:-0.111214 20:-0.301362 21:-0.0677187 22:-0.456053 23:-0.714777 24:0.0207775 25:-0.365411 26:-0.999322 27:-0.96579 28:-0.953602 29:-0.851365 30:0.775616 31:-0.141615 32:-0.969267 33:-0.0359281 34:-0.991094 
-1.582606360311394 1:-0.0544047 2:-0.190575 3:-0.202183 4:0.188294 5:-0.191298 6:-0.198338 7:-0.530116 8:-0.569049 9:-0.0453539 10:-0.481086 11:-0.959216 12:-0.988981 13:-0.967761 14:-0.89761 15:0.694392 16:-0.119691 17:-0.479435 18:-0.206724 19:-0.119338 20:-0.629998 21:-0.213855 22:-0.601097 23:-0.467353 24:-0.145241 25:-0.557344 26:-0.896834 27:-0.947957 28:-0.953799 29:-0.867538 30:0.787273 31:-0.209024 32:-0.679451 33:0.0195972 34:-0.939168 
-1.299579147563137 1:-0.122024 2:-0.0255756 3:-0.232493 4:0.347083 5:-0.13131 6:-0.14248 7:-0.536191 8:-0.575178 9:-0.108444 10:-0.551749 11:-0.898132 12:-0.924586 13:-0.963091 14:-0.837524 15:0.69566 16:-0.0387566 17:-0.159609 18:-0.161231 19:-0.124912 20:-0.503789 21:-0.151468 22:-0.624302 23:-0.631365 24:-0.076592 25:-0.494623 26:-0.980868 27:-0.952667 28:-0.953546 29:-0.868915 30:0.779808 31:0.25034 32:-0.99388 33:0.194339 34:-0.992919 
-1.848754029795243 1:-0.241988 2:-0.234976 3:-0.341978 4:0.0958947 5:-0.182343 6:-0.182057 7:-0.547754 8:-0.446851 9:-0.231586 10:-0.643232 11:-0.982489 12:-0.996308 13:-0.967881 14:-0.905227 15:0.694167 16:-0.215639 17:-0.510878 18:-0.382905 19:-0.210995 20:-0.460591 21:-0.332891 22:-0.42098 23:-0.396439 24:-0.273614 25:-0.536091 26:-0.957808 27:-0.988546 28:-0.953647 29:-0.86964 30:0.775641 31:-0.164447 32:-0.876734 33:-0.028307 34:-0.950529 
-28.97890124675386 1:-0.703998 2:-0.118907 3:-0.625425 4:0.166135 5:-0.0411431 6:-0.112696 7:-0.464365 8:-0.075275 9:-0.678028 10:-0.927559 11:-0.996827 12:-0.993828 13:-0.967842 14:-0.900159 15:0.694185 16:-0.659451 17:-0.243024 18:-0.655161 19:-0.158757 20:-0.243458 21:-0.206675 22:-0.301541 23:-0.156825 24:-0.658797 25:-0.890236 26:-0.996896 27:-0.989355 28:-0.953517 29:-0.863323 30:0.775429 31:0.0600707 32:-0.99388 33:0.0664126 34:-0.908885 
-5.684032404876355 1:-0.319048 2:0.0363061 3:-0.353929 4:0.296722 5:0.132334 6:-0.114232 7:-0.293404 8:-0.448 9:-0.298939 10:-0.715937 11:-0.910652 12:-0.937266 13:-0.965314 14:-0.877376 15:0.690737 16:-0.421131 17:-0.105328 18:-0.398159 19:-0.137351 20:-0.103216 21:-0.228255 22:-0.114433 23:-0.315214 24:-0.409367 25:-0.819379 26:-0.981865 27:-0.984289 28:-0.95344 29:-0.862447 30:0.774704 31:-0.0459364 32:-0.978557 33:-0.114861 34:-0.973584 
-7.539870600463806 1:-0.569169 2:-0.038141 3:-0.662846 4:0.455956 5:-0.222736 6:-0.0648552 7:-0.623013 8:-0.128521 9:-0.571902 10:-0.849051 11:-0.80893 12:-0.826764 13:-0.945704 14:-0.817671 15:0.70443 16:-0.637437 17:-0.112238 18:-0.680865 19:-0.174171 20:-0.370473 21:-0.277749 22:-0.431005 23:0.0259347 24:-0.654763 25:-0.862281 26:-0.98503 27:-0.986729 28:-0.953573 29:-0.866299 30:0.775825 31:0.0231041 32:-0.994343 33:-0.0217746 34:-0.945369 
-1.814601593274652 1:-0.608696 2:0.0399907 3:-0.668317 4:0.304099 5:-0.139918 6:-0.141537 7:-0.54236 8:-0.172574 9:-0.606321 10:-0.87327 11:-0.929483 12:-0.947611 13:-0.965599 14:-0.878418 15:0.695118 16:-0.798065 17:-0.00781682 18:-0.82411 19:-0.243016 20:-0.294304 21:-0.356666 22:-0.313176 23:0.325207 24:-0.811358 25:-0.921482 26:-0.995872 27:-0.99821 28:-0.953538 29:-0.866149 30:0.775267 31:0.0774667 32:-0.991992 33:0.050626 34:-0.952021 
-1.645096181404001 1:-0.693014 2:-0.27418 3:-0.719612 4:0.513106 5:-0.322058 6:-0.00084282 7:-0.715831 8:0.334229 9:-0.687711 10:-0.906874 11:-0.737444 12:-0.746368 13:-0.923299 14:-0.801358 15:0.721277 16:-0.838967 17:-0.259561 18:-0.910452 19:-0.153606 20:-0.384216 21:-0.21593 22:-0.418943 23:0.701031 24:-0.870401 25:-0.908045 26:-0.984387 27:-0.981782 28:-0.953484 29:-0.864221 30:0.776196 31:0.0171242 32:-0.998336 33:0.0451824 34:-0.995393 
-14.8847948275491 1:-0.410789 2:0.0668496 3:-0.504646 4:0.106499 5:-0.0213798 6:-0.133396 7:-0.430814 8:-0.350701 9:-0.406589 10:-0.762436 11:-0.998214 12:-0.999256 13:-0.967862 14:-0.902766 15:0.694184 16:-0.573873 17:-0.0970483 18:-0.621209 19:-0.300838 20:-0.16604 21:-0.381905 22:-0.219316 23:-0.134335 24:-0.591653 25:-0.836676 26:-0.994639 27:-0.996058 28:-0.953528 29:-0.864626 30:0.775263 31:-0.0649633 32:-0.886567 33:-0.0381056 34:-0.983173 
-1.727664603568029 1:-0.461266 2:0.0777307 3:-0.588244 4:0.0917107 5:-0.12122 6:-0.177429 7:-0.497991 8:-0.347637 9:-0.465948 10:-0.786191 11:-0.995242 12:-0.999175 13:-0.967862 14:-0.9026 15:0.694183 16:-0.627033 17:-0.0140563 18:-0.698448 19:-0.311266 20:-0.310485 21:-0.420606 22:-0.266104 23:0.0115617 24:-0.654946 25:-0.842545 26:-0.987841 27:-0.992858 28:-0.953503 29:-0.864222 30:0.775284 31:0.0818157 32:-0.993266 33:0.151334 34:-0.9852 
-8.275465787219314 1:-0.216866 2:0.0777081 3:-0.374307 4:0.337221 5:-0.178211 6:-0.0895646 7:-0.549296 8:-0.505843 9:-0.21691 10:-0.615681 11:-0.914304 12:-0.923387 13:-0.963373 14:-0.845147 15:0.695513 16:-0.48618 17:-0.0873693 18:-0.483499 19:-0.226887 20:-0.344389 21:-0.287695 22:-0.386242 23:-0.258981 24:-0.483287 25:-0.832857 26:-0.995034 27:-0.994382 28:-0.953545 29:-0.867158 30:0.775355 31:-0.0138625 32:-0.964824 33:0.0495373 34:-0.954828 
-0.02446015658223463 1:-0.107 2:-0.25569 3:-0.183 4:0.441376 5:-0.328412 6:-0.0576538 7:-0.777354 8:-0.545299 9:-0.0858255 10:-0.543128 11:-0.791472 12:-0.818033 13:-0.947216 14:-0.779423 15:0.717683 16:-0.283755 17:-0.503902 18:-0.310746 19:0.0567783 20:-0.667895 21:0.0704047 22:-0.91661 23:-0.41737 24:-0.288931 25:-0.695607 26:-0.932074 27:-0.803349 28:-0.952343 29:-0.827107 30:0.847068 31:0.0644197 32:-0.990254 33:0.102341 34:-0.989467 
-1.616141220768758 1:-0.359979 2:-0.365114 3:-0.402727 4:0.18548 5:-0.0980942 6:0.061769 7:-0.272481 8:-0.34687 9:-0.343258 10:-0.730785 11:-0.986803 12:-0.981393 13:-0.968065 14:-0.893207 15:0.694077 16:-0.363226 17:-0.40728 18:-0.521523 19:-0.193399 20:-0.226851 21:-0.205649 22:-0.0139204 23:-0.255545 24:-0.420186 25:-0.64159 26:-0.975976 27:-0.992765 28:-0.953576 29:-0.865767 30:0.775441 31:0.0269095 32:-0.9944 33:0.00870985 34:-0.995708 
-8.69424294572512 1:-0.404573 2:-0.213831 3:-0.520966 4:0.268072 5:-0.119276 6:-0.033286 7:-0.413832 8:-0.320438 9:-0.404629 10:-0.750213 11:-0.97315 12:-0.95825 13:-0.966982 14:-0.874398 15:0.693393 16:-0.317353 17:-0.35059 18:-0.459993 19:-0.128762 20:-0.255951 21:-0.181657 22:-0.2039 23:-0.412059 24:-0.367538 25:-0.634754 26:-0.985953 27:-0.982808 28:-0.953425 29:-0.858291 30:0.774823 31:0.162272 32:-0.94936 33:0.0713119 34:-0.994566 
-5.098425541549396 1:-0.625394 2:-0.0378185 3:-0.519789 4:-0.230704 5:-0.101823 6:-0.153523 7:-0.539933 8:-0.185982 9:-0.590527 10:-0.90222 11:-0.794907 12:-0.865432 13:-0.951631 14:-0.844995 15:0.689987 16:-0.718598 17:-0.235181 18:-0.710247 19:-0.373182 20:-0.268262 21:-0.36324 22:-0.245393 23:-0.0396751 24:-0.717358 25:-0.910334 26:-0.944283 27:-0.983348 28:-0.953289 29:-0.862444 30:0.775025 31:0.0790976 32:-0.956934 33:0.095264 34:-0.935093 
-6.174973565905201 1:-0.666759 2:-0.0650201 3:-0.639177 4:-0.0119788 5:-0.0235273 6:-0.1515 7:-0.52988 8:-0.305499 9:-0.649403 10:-0.908632 11:-0.969356 12:-0.984512 13:-0.967629 14:-0.895755 15:0.69405 16:-0.603194 17:-0.243203 18:-0.64118 19:-0.264615 20:-0.242187 21:-0.261326 22:-0.287969 23:-0.300843 24:-0.617865 25:-0.848701 26:-0.988594 27:-0.999259 28:-0.953537 29:-0.86596 30:0.775282 31:-0.0818157 32:-0.976952 33:-0.149701 34:-0.971063 
-0.8587882222142271 1:0.0856409 2:0.184007 3:-0.0587523 4:-0.00283142 5:-0.10736 6:-0.192938 7:-0.585798 8:-0.701591 9:0.101536 10:-0.353919 11:-0.984461 12:-0.983298 13:-0.967728 14:-0.888102 15:0.693968 16:-0.0580396 17:0.148127 18:-0.0590401 19:-0.301847 20:-0.529121 21:-0.288134 22:-0.644153 23:-0.617619 24:-0.0495024 25:-0.617919 26:-0.956457 27:-0.966202 28:-0.954176 29:-0.877694 30:0.775451 31:0.0410438 32:-0.989189 33:0.11595 34:-0.781802 
-9.831818734813277 1:-0.497963 2:-0.00151477 3:-0.482821 4:0.395226 5:-0.187217 6:-0.0524436 7:-0.551644 8:-0.393987 9:-0.475676 10:-0.830612 11:-0.880437 12:-0.879854 13:-0.957347 14:-0.838804 15:0.696345 16:-0.494286 17:-0.130646 18:-0.52914 19:-0.0208025 20:-0.462243 21:-0.0655769 22:-0.463777 23:-0.339581 24:-0.505956 25:-0.81223 26:-0.933291 27:-0.923852 28:-0.951307 29:-0.848904 30:0.784835 31:-0.0649633 32:-0.991733 33:0.0451824 34:-0.94112 
-0.9285461264204922 1:-0.285298 2:0.0407529 3:-0.319643 4:0.474953 5:-0.122351 6:-0.0225635 7:-0.521382 8:-0.561388 9:-0.263605 10:-0.693321 11:-0.832626 12:-0.810683 13:-0.943079 14:-0.763663 15:0.69663 16:-0.373048 17:-0.127345 18:-0.415967 19:0.0114994 20:-0.425638 21:-0.0277755 22:-0.461173 23:-0.411433 24:-0.385818 25:-0.753586 26:-0.933783 27:-0.905962 28:-0.950457 29:-0.839025 30:0.788037 31:-0.0366948 32:-0.993252 33:0.0914535 34:-0.877921 
-14.00303674149073 1:-0.622882 2:0.0382821 3:-0.659606 4:0.0655724 5:-0.103127 6:-0.245066 7:-0.537814 8:-0.151889 9:-0.616527 10:-0.882812 11:-0.998919 12:-0.996055 13:-0.967856 14:-0.901278 15:0.694186 16:-0.645419 17:-0.131229 18:-0.693388 19:-0.301878 20:-0.216799 21:-0.406747 22:-0.273668 23:-0.0818528 24:-0.664622 25:-0.862297 26:-0.998534 27:-0.995203 28:-0.953534 29:-0.864656 30:0.775242 31:-0.0981245 32:-0.99152 33:-0.00598802 34:-0.97285 
-2.456634319160584 1:-0.470484 2:0.309053 3:-0.432059 4:-0.337173 5:-0.292738 6:-0.327978 7:-0.695614 8:-0.289026 9:-0.442309 10:-0.81638 11:-0.716311 12:-0.717007 13:-0.912145 14:-0.749901 15:0.665307 16:-0.539326 17:0.203704 18:-0.583281 19:-0.470866 20:-0.341284 21:-0.550625 22:-0.325916 23:-0.119334 24:-0.555237 25:-0.815388 26:-0.932543 27:-0.935085 28:-0.951475 29:-0.845682 30:0.772106 31:0.110084 32:-0.991242 33:0.162221 34:-0.994801 
-2.866847644805212 1:-0.326638 2:-0.225064 3:-0.291622 4:0.0971596 5:0.0167418 6:-0.154486 7:-0.399628 8:-0.447234 9:-0.292811 10:-0.730688 11:-0.993546 12:-0.997673 13:-0.967869 14:-0.903911 15:0.694186 16:-0.402832 17:-0.462624 18:-0.423287 19:-0.153671 20:-0.220166 21:-0.17766 22:-0.287264 23:-0.341768 24:-0.407459 25:-0.760884 26:-0.998283 27:-0.98785 28:-0.953523 29:-0.861452 30:0.775436 31:-0.0513727 32:-0.984401 33:0.0108873 34:-0.959504 
-15.63934322480387 1:-0.192522 2:-0.0568532 3:-0.245393 4:0.0728015 5:-0.072032 6:-0.25728 7:-0.417882 8:-0.503161 9:-0.170463 10:-0.621434 11:-0.998705 12:-0.997386 13:-0.967866 14:-0.900354 15:0.694186 16:-0.278215 17:-0.184007 18:-0.335467 19:-0.215426 20:-0.375368 21:-0.336232 22:-0.338925 23:-0.431427 24:-0.294932 25:-0.694491 26:-0.976205 27:-0.995232 28:-0.953556 29:-0.867068 30:0.775377 31:-0.00244632 32:-0.961007 33:-0.0130648 34:-0.984973 
-1.860849992801045 1:-0.244616 2:0.0652164 3:-0.303033 4:0.137983 5:0.11985 6:-0.163355 7:-0.363371 8:-0.552961 9:-0.225968 10:-0.659382 11:-0.957358 12:-0.989648 13:-0.96796 14:-0.908151 15:0.693995 16:-0.386045 17:-0.0276723 18:-0.406513 19:-0.228702 20:-0.142083 21:-0.360792 22:-0.330448 23:-0.4005 24:-0.390401 25:-0.77588 26:-0.975553 27:-0.999566 28:-0.953536 29:-0.865875 30:0.775275 31:-0.0279967 32:-0.996865 33:-0.11595 34:-0.993619 
-1.022784443899818 1:-0.0535748 2:0.0425985 3:-0.151547 4:0.297993 5:0.111611 6:-0.137888 7:-0.333753 8:-0.666349 9:-0.0344672 10:-0.497435 11:-0.908047 12:-0.942345 13:-0.965373 14:-0.866826 15:0.691478 16:-0.176055 17:-0.0575418 18:-0.192029 19:-0.184571 20:-0.201471 21:-0.291626 22:-0.350768 23:-0.625116 24:-0.175221 25:-0.676579 26:-0.985506 27:-0.994984 28:-0.95355 29:-0.864748 30:0.77538 31:-0.113346 32:-0.926567 33:-0.0664126 34:-0.987534 
-28.10583628546324 1:-0.775508 2:0.0682295 3:-0.797188 4:0.188157 5:-0.148669 6:-0.153624 7:-0.563519 8:0.00823371 9:-0.772847 10:-0.942815 11:-0.981583 12:-0.988289 13:-0.967777 14:-0.900185 15:0.694325 16:-0.868104 17:0.000212333 18:-0.892345 19:-0.246387 20:-0.262525 21:-0.325179 22:-0.275635 23:0.224303 24:-0.881858 25:-0.940343 26:-0.998539 27:-0.999327 28:-0.953536 29:-0.865902 30:0.775279 31:0.106279 32:-0.887568 33:0.0772999 34:-0.998495 
-0.3371539740409502 1:-0.272115 2:0.0727297 3:-0.333351 4:0.0421126 5:-0.0508978 6:-0.215017 7:-0.468202 8:-0.546831 9:-0.255239 10:-0.678306 11:-0.997515 12:-0.994163 13:-0.967845 14:-0.897951 15:0.694185 16:-0.410847 17:-0.0665796 18:-0.454481 19:-0.304856 20:-0.267554 21:-0.396307 22:-0.329213 23:-0.321461 24:-0.424516 25:-0.771036 26:-0.997147 27:-0.993591 28:-0.953534 29:-0.864755 30:0.775192 31:0.241098 32:-0.841753 33:0.118672 34:-0.995134 
-1.203043629064696 1:-0.550367 2:-0.0177169 3:-0.590132 4:0.00522614 5:-0.122257 6:-0.251269 7:-0.520816 8:-0.275236 9:-0.541431 10:-0.848302 11:-0.990577 12:-0.983779 13:-0.967713 14:-0.89494 15:0.694173 16:-0.546403 17:-0.170602 18:-0.634455 19:-0.332283 20:-0.308909 21:-0.43208 22:-0.32679 23:-0.151203 24:-0.579381 25:-0.798541 26:-0.990686 27:-0.987678 28:-0.953484 29:-0.863567 30:0.775028 31:0.189454 32:-0.922812 33:0.213936 34:-0.986158 
-29.96168709276405 1:-0.681754 2:0.0260158 3:-0.709799 4:0.272335 5:-0.201403 6:-0.123567 7:-0.605361 8:-0.167595 9:-0.676247 10:-0.908435 11:-0.940861 12:-0.956097 13:-0.966493 14:-0.889085 15:0.695541 16:-0.806073 17:-0.0835655 18:-0.828122 19:-0.208556 20:-0.285249 21:-0.290086 22:-0.262772 23:0.054043 24:-0.817961 25:-0.925719 26:-0.993106 27:-0.997782 28:-0.953533 29:-0.865595 30:0.775297 31:0.119326 32:-0.942857 33:0.083288 34:-0.996826 
-1.215846181349592 1:-0.583959 2:-0.0243128 3:-0.639068 4:0.323651 5:-0.210228 6:-0.0663499 7:-0.611484 8:-0.253018 9:-0.579588 10:-0.862131 11:-0.924627 12:-0.925123 13:-0.964029 14:-0.870743 15:0.696516 16:-0.807705 17:-0.0825619 18:-0.818836 19:-0.197891 20:-0.291252 21:-0.272292 22:-0.259782 23:0.0743475 24:-0.815424 25:-0.93067 26:-0.991362 27:-0.996604 28:-0.953528 29:-0.865363 30:0.775298 31:0.0279967 32:-0.81905 33:0.0620577 34:-0.998095 
-6.531969358545956 1:-0.490387 2:-0.0372132 3:-0.55435 4:0.0174324 5:-0.0206546 6:-0.223137 7:-0.408246 8:-0.398584 9:-0.483677 10:-0.813144 11:-0.993133 12:-0.987918 13:-0.96779 14:-0.896321 15:0.694242 16:-0.605975 17:-0.240348 18:-0.697181 19:-0.312257 20:-0.122937 21:-0.402624 22:-0.109538 23:-0.163073 24:-0.641149 25:-0.818245 26:-0.995403 27:-0.992065 28:-0.953527 29:-0.86429 30:0.77542 31:-0.0676814 32:-0.997811 33:-0.0865542 34:-0.992599 
-0.6341939862940265 1:-0.576214 2:0.0737065 3:-0.720268 4:0.128619 5:-0.0123436 6:-0.19852 7:-0.423897 8:-0.120094 9:-0.589388 10:-0.845181 11:-0.994417 12:-0.998572 13:-0.967864 14:-0.902632 15:0.694181 16:-0.289095 17:-0.0162089 18:-0.441235 19:-0.310791 20:-0.0770303 21:-0.461744 22:-0.0605963 23:-0.42018 24:-0.342466 25:-0.621868 26:-0.996942 27:-0.988305 28:-0.953505 29:-0.864825 30:0.775373 31:0.533569 32:-0.580859 33:0.0277627 34:-0.982498 
-26.91629024531674 1:-0.70827 2:0.0869646 3:-0.698052 4:-0.0749014 5:-0.199091 6:-0.235822 7:-0.612012 8:-0.0407987 9:-0.696233 10:-0.923032 11:-0.94565 12:-0.949558 13:-0.966168 14:-0.887449 15:0.692767 16:-0.800692 17:-0.0183367 18:-0.845027 19:-0.318774 20:-0.330123 21:-0.387433 22:-0.300288 23:0.130584 24:-0.821057 25:-0.914373 26:-0.980733 27:-0.991538 28:-0.953495 29:-0.864718 30:0.775064 31:-0.0894265 32:-0.976546 33:-0.0125204 34:-0.995319 
-3.51479420328697 1:-0.285316 2:0.0847315 3:-0.269805 4:0.0956755 5:-0.181492 6:-0.17985 7:-0.620889 8:-0.510823 9:-0.253592 10:-0.70391 11:-0.988241 12:-0.993743 13:-0.967899 14:-0.906735 15:0.69416 16:-0.214732 17:0.0230865 18:-0.286606 19:-0.299024 20:-0.302359 21:-0.304537 22:-0.402825 23:-0.518275 24:-0.236024 25:-0.649443 26:-0.982023 27:-0.992944 28:-0.953573 29:-0.866621 30:0.775191 31:-0.220984 32:-0.971608 33:-0.188351 34:-0.992094 
-0.1992648573202453 1:-0.201928 2:0.132045 3:-0.205219 4:0.0174309 5:-0.198282 6:-0.235181 7:-0.586927 8:-0.569049 9:-0.170317 10:-0.640458 11:-0.975555 12:-0.982789 13:-0.967667 14:-0.897357 15:0.693929 16:-0.250335 17:-0.0386464 18:-0.286167 19:-0.197228 20:-0.310691 21:-0.33733 22:-0.281697 23:-0.472977 24:-0.258359 25:-0.699266 26:-0.979274 27:-0.996883 28:-0.953534 29:-0.865613 30:0.775358 31:-0.173689 32:-0.956155 33:-0.12847 34:-0.949489 
-4.548875626792007 1:-0.574265 2:0.12675 3:-0.630556 4:0.0766257 5:-0.123557 6:-0.136463 7:-0.581083 8:-0.188663 9:-0.569705 10:-0.857374 11:-0.995083 12:-0.997173 13:-0.967869 14:-0.903157 15:0.694178 16:-0.549718 17:0.0300084 18:-0.639737 19:-0.236042 20:-0.252534 21:-0.271208 22:-0.3213 23:-0.26929 24:-0.583507 25:-0.799102 26:-0.998625 27:-0.998401 28:-0.953535 29:-0.866164 30:0.775281 31:0.223158 32:-0.981509 33:0.229722 34:-0.990561 
-1.607022919517833 1:-0.426756 2:-0.176945 3:-0.460743 4:0.153053 5:-0.0844909 6:-0.23298 7:-0.530426 8:-0.315075 9:-0.411216 10:-0.780064 11:-0.987491 12:-0.997836 13:-0.96786 14:-0.901362 15:0.694197 16:-0.436321 17:-0.481833 18:-0.557577 19:-0.344197 20:-0.153524 21:-0.471336 22:-0.199966 23:-0.191502 24:-0.480249 25:-0.701387 26:-0.994501 27:-0.986052 28:-0.953478 29:-0.860238 30:0.775162 31:0.0720304 32:-0.991753 33:0.0261296 34:-0.959197 
-8.867003156979107 1:-0.509418 2:-0.0753232 3:-0.455406 4:-0.215837 5:-0.021483 6:-0.203092 7:-0.395959 8:-0.304349 9:-0.479822 10:-0.841891 11:-0.839263 12:-0.870458 13:-0.954442 14:-0.832632 15:0.698781 16:-0.396388 17:-0.226827 18:-0.414412 19:-0.377421 20:-0.234839 21:-0.48532 22:-0.163475 23:-0.41237 24:-0.399975 25:-0.778508 26:-0.982213 27:-0.977204 28:-0.953376 29:-0.857926 30:0.776311 31:-0.198152 32:-0.982851 33:-0.113772 34:-0.990699 
-1.085748981348336 1:0.0283519 2:0.14338 3:-0.0371597 4:-0.0681542 5:-0.286441 6:-0.18351 7:-0.624707 8:-0.644513 9:0.0575886 10:-0.432616 11:-0.894395 12:-0.949414 13:-0.965952 14:-0.877916 15:0.691323 16:-0.104169 17:0.257339 18:-0.13129 19:-0.387646 20:-0.4473 21:-0.534643 22:-0.461643 23:-0.509215 24:-0.10644 25:-0.612944 26:-0.970777 27:-0.959355 28:-0.953004 29:-0.855605 30:0.772438 31:0.187823 32:-0.99166 33:0.274905 34:-0.924991 
-15.81228737923319 1:-0.370137 2:-0.094579 3:-0.355751 4:0.125035 5:-0.0951145 6:-0.141146 7:-0.562227 8:-0.443021 9:-0.342376 10:-0.757083 11:-0.999576 12:-0.998208 13:-0.967862 14:-0.902456 15:0.694186 16:-0.54138 17:-0.218109 18:-0.546407 19:-0.267979 20:-0.228785 21:-0.298738 22:-0.34842 23:-0.13808 24:-0.542361 25:-0.845961 26:-0.992168 27:-0.998075 28:-0.953539 29:-0.866197 30:0.775297 31:-0.0225605 32:-0.995638 33:-0.00326619 34:-0.964291 
-3.601570716195194 1:-0.705304 2:-0.230607 3:-0.600061 4:0.0375891 5:-0.0577324 6:-0.134492 7:-0.505957 8:-0.094046 9:-0.674029 10:-0.928006 11:-0.98843 12:-0.995532 13:-0.96784 14:-0.900728 15:0.694172 16:-0.718718 17:-0.425155 18:-0.721019 19:-0.2694 20:-0.234234 21:-0.301306 22:-0.287452 23:0.0131204 24:-0.721575 25:-0.8912 26:-0.994267 27:-0.999021 28:-0.953537 29:-0.865909 30:0.775276 31:-0.0660506 32:-0.977099 33:-0.0685901 34:-0.909551 
-0.5431214194636003 1:-0.805371 2:0.154605 3:-0.817784 4:0.16578 5:-0.00164436 6:-0.117042 7:-0.396529 8:0.290938 9:-0.802162 10:-0.952444 11:-0.99422 12:-0.992297 13:-0.967833 14:-0.900808 15:0.694147 16:-0.596124 17:0.0432213 18:-0.556011 19:-0.199632 20:-0.1212 21:-0.203879 22:-0.155838 23:-0.0980984 24:-0.580657 25:-0.890822 26:-0.995485 27:-0.995197 28:-0.953527 29:-0.865028 30:0.775316 31:0.178581 32:-0.565671 33:0.466522 34:-0.992119 
-7.463731316800687 1:-0.408508 2:0.0686197 3:-0.407416 4:-0.114715 5:-0.147555 6:-0.19944 7:-0.559169 8:-0.441104 9:-0.385107 10:-0.77885 11:-0.921466 12:-0.936826 13:-0.964732 14:-0.865417 15:0.692731 16:-0.551934 17:-0.155397 18:-0.528591 19:-0.261735 20:-0.276774 21:-0.354 22:-0.200951 23:-0.342705 24:-0.542184 25:-0.867785 26:-0.989749 27:-0.999494 28:-0.953536 29:-0.865681 30:0.775281 31:0.306877 32:-0.976241 33:0.0615133 34:-0.954688 
-13.9145981382417 1:-0.283509 2:0.0951864 3:-0.308819 4:0.0183797 5:-0.0796668 6:-0.164609 7:-0.48909 8:-0.597779 9:-0.259918 10:-0.693937 11:-0.987031 12:-0.991222 13:-0.967793 14:-0.895891 15:0.694172 16:-0.513564 17:-0.0220618 18:-0.547492 19:-0.154152 20:-0.233698 21:-0.260272 22:-0.15683 23:-0.401749 24:-0.525196 25:-0.821073 26:-0.979832 27:-0.990844 28:-0.9535 29:-0.862997 30:0.774957 31:-0.0530035 32:-0.960128 33:-0.0408274 34:-0.958929 
-0.4494541977845197 1:0.0716882 2:-0.0184855 3:-0.021227 4:0.308536 5:-0.325137 6:-0.0702194 7:-0.709627 8:-0.735683 9:0.0973242 10:-0.383861 11:-0.883393 12:-0.918009 13:-0.963698 14:-0.863924 15:0.700346 16:-0.244075 17:-0.0985347 18:-0.295922 19:-0.0484214 20:-0.169999 21:-0.116082 22:0.0352913 23:-0.464541 24:-0.258152 25:-0.682946 26:-0.949976 27:-0.946923 28:-0.953533 29:-0.849304 30:0.76659 31:0.0877956 32:-0.805708 33:-0.0577028 34:-0.982626 
-1.925390947054533 1:-0.389193 2:-0.0787143 3:-0.399799 4:0.21834 5:-0.174457 6:-0.0180203 7:-0.607749 8:-0.530743 9:-0.367298 10:-0.76417 11:-0.985806 12:-0.971516 13:-0.967456 14:-0.88973 15:0.69436 16:-0.481089 17:-0.14241 18:-0.531435 19:-0.1019 20:-0.116372 21:-0.197959 22:-0.127252 23:-0.414245 24:-0.498497 25:-0.796399 26:-0.970556 27:-0.974548 28:-0.953237 29:-0.858828 30:0.774184 31:0.204675 32:-0.615316 33:-0.0277627 34:-0.967516 
-9.549147438033947 1:-0.58338 2:0.012174 3:-0.559778 4:0.140431 5:0.0200267 6:-0.132544 7:-0.428476 8:-0.278684 9:-0.563154 10:-0.873529 11:-0.990606 12:-0.99612 13:-0.967852 14:-0.902219 15:0.694163 16:-0.690534 17:-0.052682 18:-0.706435 19:-0.225999 20:-0.0457938 21:-0.310146 22:-0.0544931 23:-0.0337437 24:-0.698155 25:-0.894753 26:-0.991455 27:-0.993937 28:-0.953555 29:-0.867066 30:0.775212 31:-0.020386 32:-0.991344 33:0.0528035 34:-0.983852 
-0.4576170963454686 1:-0.594158 2:0.253239 3:-0.573323 4:-0.218789 5:-0.16149 6:-0.220171 7:-0.544753 8:-0.230417 9:-0.574963 10:-0.875776 11:-0.83443 12:-0.8645 13:-0.953094 14:-0.837243 15:0.690661 16:-0.682737 17:0.100791 18:-0.828757 19:-0.361472 20:-0.25163 21:-0.38263 22:-0.190967 23:0.000630085 24:-0.740247 25:-0.815621 26:-0.960517 27:-0.985681 28:-0.95338 29:-0.861294 30:0.775687 31:0.0399565 32:-0.998292 33:-0.00217746 34:-0.990107 
-32 1:-0.879499 2:0.0993436 3:-0.835445 4:0.0460108 5:-0.165397 6:-0.183683 7:-0.587331 8:0.305881 9:-0.868198 10:-0.977338 11:-0.986375 12:-0.991482 13:-0.967844 14:-0.902139 15:0.694088 16:-0.860607 17:-0.0515639 18:-0.862943 19:-0.261258 20:-0.253845 21:-0.333227 22:-0.207493 23:0.29803 24:-0.865817 25:-0.947231 26:-0.994508 27:-0.999668 28:-0.953536 29:-0.865727 30:0.77528 31:0.00407719 32:-0.973466 33:-0.102885 34:-0.9967 
-25.59859825854322 1:-0.829617 2:0.15569 3:-0.803536 4:0.0560576 5:-0.109839 6:-0.132703 7:-0.488234 8:0.234243 9:-0.819734 10:-0.962827 11:-0.989872 12:-0.997538 13:-0.967854 14:-0.901753 15:0.694177 16:-0.907611 17:0.125198 18:-0.90685 19:-0.2459 20:-0.248253 21:-0.29373 22:-0.19701 23:0.528272 24:-0.912406 25:-0.953846 26:-0.99404 27:-0.99999 28:-0.953536 29:-0.865776 30:0.775279 31:0.082903 32:-0.994104 33:0.0985302 34:-0.9958 
-0.2824420900987426 1:-0.517098 2:0.205381 3:-0.463562 4:-0.254133 5:-0.402509 6:-0.198808 7:-0.755574 8:-0.305115 9:-0.487933 10:-0.845252 11:-0.669817 12:-0.80355 13:-0.93926 14:-0.82934 15:0.660022 16:-0.776101 17:0.121122 18:-0.805673 19:-0.283873 20:-0.300534 21:-0.32163 22:-0.299471 23:0.195567 24:-0.790387 25:-0.909412 26:-0.98785 27:-0.997072 28:-0.953538 29:-0.865676 30:0.775225 31:0.154118 32:-0.984678 33:0.0979858 34:-0.964771 
-2.873849776714622 1:-0.157926 2:0.138188 3:-0.298626 4:0.215568 5:-0.0950418 6:-0.0206579 7:-0.444697 8:-0.546448 9:-0.152013 10:-0.573193 11:-0.994095 12:-0.977875 13:-0.967716 14:-0.883136 15:0.694012 16:-0.350529 17:0.00661522 18:-0.289963 19:-0.215409 20:-0.0808886 21:-0.185611 22:0.0078815 23:-0.525772 24:-0.323149 25:-0.813987 26:-0.993186 27:-0.990194 28:-0.953497 29:-0.867227 30:0.775242 31:-0.134547 32:-0.962309 33:0.102341 34:-0.877521 
-0.03823869415279658 1:-0.0853357 2:0.19092 3:-0.224768 4:0.124606 5:0.0209164 6:-0.222859 7:-0.424305 8:-0.595481 9:-0.0759662 10:-0.51256 11:-0.987032 12:-0.997983 13:-0.96787 14:-0.903912 15:0.694182 16:-0.250506 17:0.0205102 18:-0.136271 19:-0.256842 20:-0.085733 21:-0.335826 22:-0.27565 23:-0.604185 24:-0.200848 25:-0.806789 26:-0.96895 27:-0.999769 28:-0.953536 29:-0.865735 30:0.775279 31:0.197064 32:-0.984426 33:0.221557 34:-0.990286 
-0.1131230226572319 1:-0.364134 2:0.179662 3:-0.415906 4:0.15986 5:0.0878023 6:-0.167268 7:-0.332268 8:-0.498182 9:-0.349416 10:-0.74077 11:-0.971405 12:-0.987953 13:-0.967906 14:-0.904989 15:0.69395 16:-0.227547 17:-0.0595709 18:-0.187755 19:-0.202186 20:0.0340959 21:-0.186136 22:-0.187254 23:-0.595751 24:-0.206125 25:-0.74611 26:-0.925594 27:-0.993423 28:-0.95347 29:-0.865448 30:0.775106 31:0.250883 32:-0.983938 33:0.232444 34:-0.990286 
-9.411752461314949 1:-0.449656 2:0.0580226 3:-0.527112 4:0.152863 5:-0.188732 6:-0.146668 7:-0.580097 8:-0.359128 9:-0.443869 10:-0.78848 11:-0.979923 12:-0.991746 13:-0.967856 14:-0.903412 15:0.694301 16:-0.381121 17:-0.0648036 18:-0.34901 19:-0.238653 20:-0.305776 21:-0.318424 22:-0.351611 23:-0.508903 24:-0.365184 25:-0.809073 26:-0.998002 27:-0.996947 28:-0.95354 29:-0.866733 30:0.775285 31:-0.0992117 32:-0.978151 33:0.0348394 34:-0.949689 
-12.64533021171847 1:-0.25441 2:0.142204 3:-0.364872 4:0.0541367 5:-0.14433 6:-0.196729 7:-0.51871 8:-0.564069 9:-0.246663 10:-0.654217 11:-0.989569 12:-0.994923 13:-0.967839 14:-0.900591 15:0.694161 16:-0.483321 17:-0.0330367 18:-0.489635 19:-0.286182 20:-0.284028 21:-0.351327 22:-0.167886 23:-0.371446 24:-0.483839 25:-0.826215 26:-0.979543 27:-0.998085 28:-0.953534 29:-0.865188 30:0.775314 31:0.0557217 32:-0.987187 33:0.0762112 34:-0.948236 
-0.6514118888613808 1:-0.434916 2:0.11259 3:-0.381094 4:-0.285989 5:-0.252863 6:-0.23877 7:-0.582305 8:-0.349935 9:-0.402078 10:-0.803208 11:-0.733481 12:-0.796049 13:-0.933553 14:-0.789096 15:0.683694 16:-0.589111 17:0.0608931 18:-0.505897 19:-0.291022 20:-0.145031 21:-0.336061 22:0.103007 23:-0.193376 24:-0.556961 25:-0.908545 26:-0.976892 27:-0.987732 28:-0.953567 29:-0.867907 30:0.774653 31:0.0943191 32:-0.973892 33:-0.0593359 34:-0.980764 
-19.76355651251732 1:-0.563217 2:0.122793 3:-0.635731 4:-0.114527 5:-0.106423 6:-0.230734 7:-0.513047 8:-0.256466 9:-0.561432 10:-0.849581 11:-0.937024 12:-0.936141 13:-0.964892 14:-0.868851 15:0.693708 16:-0.704749 17:0.0428424 18:-0.739197 19:-0.239458 20:-0.137075 21:-0.306422 22:-0.119805 23:-0.0712249 24:-0.719734 25:-0.888568 26:-0.999616 27:-0.998311 28:-0.953537 29:-0.866155 30:0.775275 31:-0.0285404 32:-0.984132 33:-0.0141535 34:-0.983226 
-9.286449990787188 1:-0.336328 2:0.0773333 3:-0.328564 4:0.0296667 5:-0.0699381 6:-0.265963 7:-0.480963 8:-0.496267 9:-0.308405 10:-0.735841 11:-0.998938 12:-0.990199 13:-0.967839 14:-0.895548 15:0.69419 16:-0.481893 17:0.00600452 18:-0.585015 19:-0.210702 20:-0.0852324 21:-0.294482 22:0.00260259 23:-0.269603 24:-0.519601 25:-0.760675 26:-0.998529 27:-0.991636 28:-0.953551 29:-0.867714 30:0.775294 31:0.0546344 32:-0.994323 33:-0.0266739 34:-0.980298 
-1.720804484257156 1:-0.283094 2:-0.0483994 3:-0.306363 4:-0.181184 5:0.0961844 6:-0.220288 7:-0.383496 8:-0.558324 9:-0.259072 10:-0.693605 11:-0.851349 12:-0.88907 13:-0.957714 14:-0.828391 15:0.698159 16:-0.434144 17:-0.0549355 18:-0.501062 19:-0.248688 20:0.100415 21:-0.346716 22:0.0603738 23:-0.264916 24:-0.457146 25:-0.765199 26:-0.960883 27:-0.981916 28:-0.953767 29:-0.872143 30:0.775639 31:0.0823593 32:-0.994008 33:0.264017 34:-0.982131 
-0.3116313669576042 1:-0.82 2:-0.304731 3:-0.589889 4:0.000933131 5:-0.0452805 6:-0.0211193 7:-0.508746 8:0.0132132 9:-0.768663 10:-0.969811 11:-0.946604 12:-0.992447 13:-0.967751 14:-0.900452 15:0.694153 16:-0.840314 17:-0.645591 18:-0.727494 19:-0.255757 20:-0.236228 21:-0.214448 22:-0.205473 23:0.124957 24:-0.800924 25:-0.931011 26:-0.979037 27:-0.999962 28:-0.953536 29:-0.86577 30:0.775279 31:0.247078 32:-0.991678 33:0.102341 34:-0.905724 
-0.609128802167164 1:-0.689055 2:0.325627 3:-0.466718 4:-0.0874143 5:-0.0748107 6:-0.109034 7:-0.669785 8:-0.116647 9:-0.633516 10:-0.935269 11:-0.914135 12:-0.957165 13:-0.966722 14:-0.887231 15:0.69192 16:-0.737731 17:0.183932 18:-0.624047 19:-0.327527 20:-0.217158 21:-0.309081 22:-0.394682 23:0.0143755 24:-0.696318 25:-0.951381 26:-0.956793 27:-0.991638 28:-0.953582 29:-0.864739 30:0.774869 31:0.303615 32:-0.993389 33:0.264562 34:-0.985173 
-5.173376291780623 1:-0.667464 2:0.310429 3:-0.663404 4:-0.0228955 5:-0.131471 6:-0.136154 7:-0.513766 8:-0.24689 9:-0.654869 10:-0.90298 11:-0.959469 12:-0.980997 13:-0.967494 14:-0.894408 15:0.693993 16:-0.688524 17:-0.0307766 18:-0.760089 19:-0.246229 20:-0.287211 21:-0.274308 22:-0.202884 23:-0.238675 24:-0.717508 25:-0.865121 26:-0.984238 27:-0.999862 28:-0.953536 29:-0.865798 30:0.77528 31:0.182387 32:-0.997777 33:0.159499 34:-0.979358 
-8.741028704304419 1:-0.658489 2:-0.150206 3:-0.820774 4:-0.0934725 5:-0.0930168 6:-0.278253 7:-0.438981 8:-0.19326 9:-0.678952 10:-0.878803 11:-0.96208 12:-0.943914 13:-0.966015 14:-0.875605 15:0.694896 16:-0.68001 17:-0.282085 18:-0.858302 19:-0.308223 20:-0.316849 21:-0.429358 22:-0.215231 23:0.00968913 24:-0.749879 25:-0.790648 26:-0.979444 27:-0.993755 28:-0.953508 29:-0.86413 30:0.775416 31:0.0062517 32:-0.991861 33:0.00108873 34:-0.992294 
-2.946348879768786 1:-0.695628 2:0.0606164 3:-0.775672 4:-0.204101 5:-0.0486319 6:-0.263784 7:-0.390301 8:-0.225054 9:-0.701187 10:-0.907518 11:-0.880951 12:-0.872482 13:-0.956661 14:-0.848617 15:0.69852 16:-0.677322 17:0.0272325 18:-0.754989 19:-0.378781 20:-0.264167 21:-0.476935 22:-0.186913 23:-0.0818528 24:-0.708467 25:-0.856752 26:-0.975969 27:-0.977313 28:-0.953324 29:-0.859419 30:0.776262 31:0.307964 32:-0.986669 33:0.229722 34:-0.972892 
-0.8381820818645158 1:-0.993861 2:0.155718 3:-0.919501 4:0.0917092 5:-0.0685523 6:-0.172693 7:-0.510715 8:0.924911 9:-0.981501 10:-1 11:-0.999908 12:-0.999756 13:-0.967862 14:-0.902314 15:0.694185 16:-0.992824 17:0.0401989 18:-0.962363 19:-0.266003 20:-0.218141 21:-0.337534 22:-0.250294 23:0.761641 24:-0.987607 25:-0.981542 26:-0.999022 27:-0.999377 28:-0.953536 29:-0.865716 30:0.775278 31:0.396032 32:-0.995093 33:0.412629 34:-0.997535 
-9.550133318012735 1:-0.500365 2:0.143278 3:-0.488206 4:-0.151631 5:-0.147964 6:-0.155335 7:-0.469081 8:-0.516951 9:-0.478788 10:-0.831072 11:-0.868198 12:-0.921422 13:-0.961964 14:-0.858865 15:0.69433 16:-0.481638 17:0.00111361 18:-0.574673 19:-0.342129 20:-0.108521 21:-0.355949 22:-0.112797 23:-0.360824 24:-0.515464 25:-0.767811 26:-0.968525 27:-0.988264 28:-0.953484 29:-0.863406 30:0.775914 31:0.120413 32:-0.943453 33:-0.11976 34:-0.972839 
-16.50585951335503 1:-0.659602 2:0.120475 3:-0.557934 4:0.0290556 5:-0.193715 6:-0.12753 7:-0.611411 8:-0.295922 9:-0.627033 10:-0.91537 11:-0.968856 12:-0.987896 13:-0.967876 14:-0.902423 15:0.693929 16:-0.623503 17:0.0524734 18:-0.635819 19:-0.307378 20:-0.395045 21:-0.337601 22:-0.368315 23:-0.224616 24:-0.62864 25:-0.872736 26:-0.965764 27:-0.990419 28:-0.953554 29:-0.866012 30:0.77474 31:0.020386 32:-0.908495 33:-0.0898204 34:-0.952161 
-4.349381155521746 1:-0.442999 2:0.0483443 3:-0.399154 4:0.458727 5:-0.258674 6:0.00104058 7:-0.652924 8:-0.524613 9:-0.41252 10:-0.806159 11:-0.82572 12:-0.810283 13:-0.943587 14:-0.804748 15:0.705287 16:-0.411297 17:-0.0590261 18:-0.445437 19:-0.0418088 20:-0.527691 21:-0.107326 22:-0.451575 23:-0.457044 24:-0.421325 25:-0.777847 26:-0.89718 27:-0.934278 28:-0.951334 29:-0.853699 30:0.784944 31:0.0986681 32:-0.972488 33:-0.0217746 34:-0.98404 
-1.475400295751545 1:-0.721484 2:0.242778 3:-0.606953 4:-0.0986088 5:-0.115553 6:-0.167087 7:-0.443918 8:-0.108219 9:-0.689053 10:-0.937031 11:-0.92264 12:-0.950326 13:-0.965616 14:-0.884342 15:0.694694 16:-0.784063 17:0.19268 18:-0.786342 19:-0.310081 20:-0.193221 21:-0.311103 22:-0.0786997 23:0.158703 24:-0.787989 25:-0.918928 26:-0.972029 27:-0.994668 28:-0.953557 29:-0.865728 30:0.775437 31:0.137266 32:-0.997717 33:0.0827436 34:-0.983493 
-0.4330499086246959 1:-0.765234 2:0.0384951 3:-0.718963 4:0.0511398 5:0.00952501 6:-0.109555 7:-0.423159 8:0.0618633 9:-0.748457 10:-0.946338 11:-0.983135 12:-0.996178 13:-0.967859 14:-0.90209 15:0.694218 16:-0.901696 17:-0.0624886 18:-0.870318 19:-0.228582 20:-0.115457 21:-0.246109 22:-0.098504 23:0.544517 24:-0.894624 25:-0.967273 26:-0.996724 27:-0.996743 28:-0.953532 29:-0.866051 30:0.775257 31:-0.374286 32:-0.989067 33:-0.137725 34:-0.976751 
-11.25132892563926 1:-0.824559 2:0.185646 3:-0.78805 4:-0.00257578 5:-0.0608109 6:-0.103471 7:-0.431112 8:0.154565 9:-0.812356 10:-0.961931 11:-0.967451 12:-0.988702 13:-0.967716 14:-0.899191 15:0.694283 16:-0.811381 17:0.144812 18:-0.847353 19:-0.299872 20:-0.172189 21:-0.282727 22:-0.102494 23:0.260235 24:-0.828709 25:-0.915263 26:-0.973953 27:-0.996376 28:-0.953548 29:-0.865843 30:0.775362 31:0.0144061 32:-0.990724 33:-0.0767556 34:-0.996486 
-5.846510738184544 1:-0.901948 2:0.135178 3:-0.886756 4:0.0321451 5:-0.106563 6:-0.149522 7:-0.507461 8:0.522695 9:-0.897439 10:-0.98012 11:-0.987011 12:-0.993794 13:-0.967825 14:-0.900996 15:0.694158 16:-0.821983 17:0.0633065 18:-0.933789 19:-0.307661 20:-0.218514 21:-0.320385 22:-0.214259 23:0.505153 24:-0.868637 25:-0.886996 26:-0.981152 27:-0.996491 28:-0.953522 29:-0.864898 30:0.775291 31:-0.124762 32:-0.888748 33:-0.13718 34:-0.995401 
-1.728242546132034 1:-0.810262 2:0.138421 3:-0.80096 4:0.00100203 5:-0.228027 6:-0.150008 7:-0.616052 8:0.532649 9:-0.802901 10:-0.956072 11:-0.949967 12:-0.979087 13:-0.967706 14:-0.900749 15:0.693486 16:-0.537726 17:0.118701 18:-0.551712 19:-0.237615 20:-0.42847 21:-0.25042 22:-0.348856 23:-0.0543619 24:-0.54209 25:-0.838178 26:-0.957979 27:-0.993789 28:-0.953563 29:-0.867547 30:0.775545 31:0.675999 32:-0.498924 33:-0.100163 34:-0.994174 
-1.067331279001817 1:-0.827454 2:0.12863 3:-0.835866 4:0.0041236 5:-0.181224 6:-0.117495 7:-0.560239 8:0.537626 9:-0.824412 10:-0.959503 11:-0.957613 12:-0.985903 13:-0.967726 14:-0.900143 15:0.693867 16:-0.529858 17:0.237588 18:-0.541806 19:-0.245116 20:-0.331306 21:-0.180751 22:-0.260764 23:-0.0996571 24:-0.533308 25:-0.82832 26:-0.960769 27:-0.998356 28:-0.953531 29:-0.86611 30:0.775304 31:0.597173 32:-0.779377 33:-0.148068 34:-0.994201 
-4.827440329584642 1:-0.836397 2:0.0933571 3:-0.874195 4:0.0265258 5:-0.135291 6:-0.145113 7:-0.520398 8:0.35184 9:-0.839658 10:-0.959664 11:-0.980549 12:-0.992142 13:-0.967805 14:-0.900658 15:0.69412 16:-0.557193 17:0.0269538 18:-0.547378 19:-0.275755 20:-0.295344 21:-0.30061 22:-0.367016 23:-0.223367 24:-0.552729 25:-0.862353 26:-0.991451 27:-0.996041 28:-0.953548 29:-0.86642 30:0.775282 31:0.360152 32:-0.844773 33:0.00598802 34:-0.908956 
-6.070274233173405 1:-0.642533 2:0.1192 3:-0.49516 4:0.15191 5:-0.191771 6:-0.119384 7:-0.590274 8:-0.310862 9:-0.600021 10:-0.914332 11:-0.981454 12:-0.990756 13:-0.967842 14:-0.903268 15:0.694314 16:-0.814047 17:0.0612135 18:-0.736871 19:-0.202783 20:-0.328285 21:-0.253847 22:-0.297369 23:0.0262383 24:-0.787926 25:-0.961833 26:-0.988802 27:-0.995561 28:-0.953525 29:-0.865835 30:0.775345 31:-0.160098 32:-0.963954 33:-0.187806 34:-0.933359 
-0.5452666111415236 1:-0.343469 2:0.109191 3:-0.133654 4:-0.0140584 5:-0.591585 6:-0.169332 7:-0.899491 8:-0.536872 9:-0.275235 10:-0.77889 11:-0.6715 12:-0.895364 13:-0.975919 14:-0.945816 15:0.676837 16:-0.602961 17:0.0877735 18:-0.591023 19:-0.304093 20:-0.612139 21:-0.378988 22:-0.592296 23:-0.199937 24:-0.598436 25:-0.877187 26:-0.922227 27:-0.964022 28:-0.95419 29:-0.871967 30:0.77094 31:-0.0388693 32:-0.978769 33:-0.0914535 34:-0.995828 
-1.254794518608248 1:-0.745916 2:0.0160907 3:-0.741411 4:0.244118 5:0.0529905 6:-0.0270623 7:-0.41485 8:0.149586 9:-0.736687 10:-0.93566 11:-0.973024 12:-0.964623 13:-0.967055 14:-0.892041 15:0.69417 16:-0.793372 17:0.00823045 18:-0.75211 19:-0.116534 20:-0.13789 21:-0.162734 22:-0.2093 23:0.184635 24:-0.780715 25:-0.946644 26:-0.985108 27:-0.978588 28:-0.953356 29:-0.861898 30:0.775654 31:-0.441152 32:-0.856905 33:-0.336962 34:-0.85445 
-16.58213697869875 1:-0.738687 2:0.133065 3:-0.729109 4:-0.0297777 5:-0.15182 6:-0.206338 7:-0.571735 8:-0.00900446 9:-0.72812 10:-0.933442 11:-0.970304 12:-0.973245 13:-0.967378 14:-0.894259 15:0.693778 16:-0.636479 17:0.0681895 18:-0.733311 19:-0.335061 20:-0.332105 21:-0.411293 22:-0.261269 23:-0.0468616 24:-0.674318 25:-0.828927 26:-0.972763 27:-0.988955 28:-0.953442 29:-0.862921 30:0.775226 31:-0.029084 32:-0.989463 33:0.028307 34:-0.98416 
-0.9142314279493329 1:-0.654849 2:0.395187 3:-0.649892 4:-0.0501362 5:-0.0386135 6:-0.226244 7:-0.458298 8:0.0990205 9:-0.641519 10:-0.895097 11:-0.972459 12:-0.967467 13:-0.967144 14:-0.888773 15:0.694264 16:-0.469411 17:0.426828 18:-0.534909 19:-0.241712 20:0.0253279 21:-0.301867 22:0.108218 23:-0.285223 24:-0.49245 25:-0.748261 26:-0.993731 27:-0.982101 28:-0.953624 29:-0.871667 30:0.775065 31:0.782006 32:-0.9497 33:0.150245 34:-0.908231 
-32 1:-0.775832 2:0.139932 3:-0.770182 4:0.116081 5:-0.0844962 6:-0.113687 7:-0.508611 8:0.022024 9:-0.76769 10:-0.945239 11:-0.999457 12:-0.999307 13:-0.967862 14:-0.902259 15:0.694184 16:-0.810364 17:0.139401 18:-0.78647 19:-0.274296 20:-0.213871 21:-0.33561 22:-0.287227 23:0.129957 24:-0.804663 25:-0.93925 26:-0.996684 27:-0.998689 28:-0.953537 29:-0.865619 30:0.775272 31:0.125849 32:-0.991316 33:0.0680457 34:-0.990932 
-0.02433431852514055 1:-0.118039 2:0.241903 3:-0.236392 4:0.457981 5:-0.144937 6:0.014316 7:-0.503845 8:-0.665583 9:-0.105872 10:-0.544712 11:-0.862506 12:-0.820802 13:-0.947131 14:-0.746338 15:0.693773 16:-0.342442 17:0.178882 18:-0.347358 19:-0.12048 20:-0.187224 21:-0.118205 22:-0.0958283 23:-0.425491 24:-0.3401 25:-0.759053 26:-0.994821 27:-0.976459 28:-0.953546 29:-0.85776 30:0.774452 31:0.341125 32:-0.98127 33:0.132825 34:-0.996895 
-6.532966502401255 1:-0.463226 2:0.178674 3:-0.674017 4:0.253096 5:-0.0288326 6:-0.0630754 7:-0.485714 8:-0.178704 9:-0.48485 10:-0.771045 11:-0.979666 12:-0.966589 13:-0.967227 14:-0.880808 15:0.694341 16:-0.607927 17:-0.0358502 18:-0.670426 19:-0.141057 20:-0.187856 21:-0.232533 22:-0.255663 23:-0.117148 24:-0.632098 25:-0.840776 26:-0.984291 27:-0.987515 28:-0.95346 29:-0.862131 30:0.775545 31:0.156292 32:-0.700157 33:0.0783887 34:-0.98676 
-18.53573582196337 1:-0.64864 2:0.156756 3:-0.772197 4:0.308836 5:-0.0263251 6:-0.0621748 7:-0.472642 8:-0.0917474 9:-0.660881 10:-0.881566 11:-0.954444 12:-0.940236 13:-0.965562 14:-0.873916 15:0.694316 16:-0.678798 17:0.0459681 18:-0.767862 19:-0.116756 20:-0.191243 21:-0.212216 22:-0.213545 23:-0.116216 24:-0.714348 25:-0.850318 26:-0.977871 27:-0.981041 28:-0.953344 29:-0.860347 30:0.775242 31:0.157923 32:-0.986416 33:0.0838323 34:-0.995895 
