svm_type c_svc
kernel_type rbf
gamma 2
nr_class 2
total_sv 63
rho 7.10452
label 1 -1
nr_sv 30 33
SV
15.64019460821338 1:-0.900854 2:-0.45459 3:-0.795123 4:0.679998 5:-0.911149 6:-0.969409 7:-0.934542 8:-0.779334 9:-0.892143 10:-0.994923 11:-0.999998 12:-0.999999 13:-1 14:-0.999994 15:-0.878342 16:-0.711222 17:-0.421056 18:-0.829675 19:-0.100574 20:-0.890954 21:0.115101 22:-0.83618 23:-0.760125 24:-0.769444 25:-0.900201 26:-0.998235 27:-0.999006 28:-0.999987 29:-0.999702 30:0.998226 
512 1:-0.970335 2:-0.231298 3:-0.941087 4:0.680008 5:-0.909457 6:-0.963705 7:-0.936456 8:-0.482717 9:-0.968943 10:-0.999243 11:-1 12:-1 13:-1 14:-0.999994 15:-0.878342 16:-0.859864 17:-0.117025 18:-0.914801 19:-0.117611 20:-0.845222 21:0.106919 22:-0.800687 23:-0.645953 24:-0.886955 25:-0.963887 26:-0.999983 27:-0.999914 28:-0.999987 29:-0.99982 30:0.998223 
512 1:-0.970317 2:-0.2208 3:-0.94071 4:0.679328 5:-0.908584 6:-0.964741 7:-0.936119 8:-0.485297 9:-0.968891 10:-0.999244 11:-1 12:-0.999999 13:-1 14:-0.999994 15:-0.878342 16:-0.864116 17:-0.105439 18:-0.915907 19:-0.122245 20:-0.85152 21:0.103635 22:-0.802802 23:-0.643249 24:-0.889664 25:-0.965896 26:-0.999914 27:-0.999912 28:-0.999987 29:-0.999827 30:0.998223 
87.4836177858073 1:-0.934994 2:-0.250376 3:-0.884682 4:0.689861 5:-0.923025 6:-0.962314 7:-0.95154 8:-0.605677 9:-0.931574 10:-0.997378 11:-0.999928 12:-0.999927 13:-1 14:-0.999989 15:-0.878342 16:-0.827991 17:-0.120509 18:-0.91932 19:-0.0915985 20:-0.863798 21:0.109575 22:-0.850326 23:-0.562388 24:-0.872923 25:-0.936819 26:-0.998117 27:-0.998697 28:-0.999987 29:-0.999671 30:0.998229 
199.7968096148354 1:-0.942065 2:-0.22729 3:-0.858917 4:0.69379 5:-0.938776 6:-0.947626 7:-0.969185 8:-0.606415 9:-0.935529 10:-0.998117 11:-0.99989 12:-0.999822 13:-1 14:-0.999986 15:-0.878342 16:-0.857405 17:-0.127882 18:-0.903348 19:-0.0948966 20:-0.873275 21:0.123562 22:-0.935042 23:-0.596838 24:-0.880085 25:-0.969222 26:-0.999684 27:-0.998109 28:-0.999988 29:-0.999788 30:0.998227 
136.4522896480548 1:-0.922256 2:-0.205369 3:-0.831349 4:0.689595 5:-0.936718 6:-0.94879 7:-0.963916 8:-0.744861 9:-0.914968 10:-0.996767 11:-0.999939 12:-0.999903 13:-1 14:-0.999989 15:-0.878342 16:-0.822511 17:-0.122409 18:-0.885628 19:-0.095058 20:-0.87847 21:0.12249 22:-0.91961 23:-0.699053 24:-0.853609 25:-0.95764 26:-0.999566 27:-0.998194 28:-0.999988 29:-0.999782 30:0.998228 
296.0905378485735 1:-0.963066 2:-0.175015 3:-0.919647 4:0.686684 5:-0.908376 6:-0.959027 7:-0.940207 8:-0.410634 9:-0.960322 10:-0.998998 11:-0.999978 12:-0.999967 13:-1 14:-0.999992 15:-0.878342 16:-0.862263 17:-0.158578 18:-0.916453 19:-0.0956535 20:-0.829248 21:0.115933 22:-0.785901 23:-0.498898 24:-0.888987 25:-0.964298 26:-0.999232 27:-0.999133 28:-0.999987 29:-0.999681 30:0.998224 
52.86792851115042 1:-0.963505 2:-0.186382 3:-0.916787 4:0.687303 5:-0.910739 6:-0.958841 7:-0.942398 8:-0.434418 9:-0.960447 10:-0.999037 11:-0.999973 12:-0.99996 13:-1 14:-0.999992 15:-0.878342 16:-0.860277 17:-0.157646 18:-0.912171 19:-0.0941059 20:-0.832829 21:0.115906 22:-0.795468 23:-0.535341 24:-0.885875 25:-0.965662 26:-0.999098 27:-0.999025 28:-0.999987 29:-0.999671 30:0.998225 
55.82767999091937 1:-0.918194 2:-0.00901934 3:-0.813445 4:0.684623 5:-0.907709 6:-0.955559 7:-0.935209 8:-0.693243 9:-0.909588 10:-0.996517 11:-0.999995 12:-0.999983 13:-1 14:-0.999992 15:-0.878342 16:-0.767177 17:0.0752074 18:-0.849107 19:-0.0983175 20:-0.848014 21:0.122745 22:-0.825766 23:-0.711723 24:-0.807495 25:-0.938782 26:-0.99983 27:-0.999062 28:-0.999987 29:-0.999714 30:0.998224 
182.2577844534838 1:-0.960233 2:-0.159889 3:-0.929811 4:0.676777 5:-0.91678 6:-0.965507 7:-0.944436 8:-0.477924 9:-0.958722 10:-0.998787 11:-0.99999 12:-0.999988 13:-1 14:-0.999993 15:-0.878342 16:-0.823625 17:-0.0353312 18:-0.889356 19:-0.119856 20:-0.866498 21:0.106851 22:-0.83663 23:-0.661185 24:-0.856005 25:-0.955188 26:-0.999759 27:-0.999733 28:-0.999987 29:-0.999859 30:0.998223 
220.3889367765726 1:-0.972696 2:-0.183442 3:-0.936638 4:0.682688 5:-0.912544 6:-0.964868 7:-0.936299 8:-0.357911 9:-0.970658 10:-0.999365 11:-0.999993 12:-0.999995 13:-1 14:-0.999993 15:-0.878342 16:-0.966113 17:-0.0919445 18:-0.959873 19:-0.120973 20:-0.83996 21:0.101902 22:-0.789293 23:-0.208342 24:-0.963214 25:-0.993514 26:-0.999992 27:-0.999968 28:-0.999987 29:-0.999816 30:0.998223 
67.6412021779113 1:-0.972501 2:-0.179596 3:-0.939174 4:0.682677 5:-0.913014 6:-0.96443 7:-0.936302 8:-0.35017 9:-0.970722 10:-0.999345 11:-0.999993 12:-0.999995 13:-1 14:-0.999993 15:-0.878342 16:-0.966448 17:-0.0961876 18:-0.960149 19:-0.121673 20:-0.839953 21:0.101826 22:-0.785837 23:-0.221723 24:-0.963521 25:-0.993557 26:-0.999993 27:-0.999972 28:-0.999987 29:-0.999815 30:0.998223 
144.6347576593548 1:-0.968177 2:-0.0789617 3:-0.927655 4:0.684402 5:-0.90598 6:-0.957969 7:-0.928419 8:-0.498755 9:-0.965712 10:-0.999187 11:-0.999994 12:-0.999985 13:-1 14:-0.999993 15:-0.878342 16:-0.881094 17:0.0429377 18:-0.925276 19:-0.117748 20:-0.820883 21:0.105812 22:-0.750375 23:-0.577051 24:-0.902913 25:-0.968226 26:-0.999939 27:-0.999976 28:-0.999987 29:-0.999811 30:0.998223 
512 1:-0.96545 2:-0.199956 3:-0.890463 4:0.686796 5:-0.920103 6:-0.955193 7:-0.953287 8:-0.492672 9:-0.959707 10:-0.999262 11:-0.999979 12:-0.999958 13:-1 14:-0.999992 15:-0.878342 16:-0.936712 17:-0.142715 18:-0.938947 19:-0.106111 20:-0.837582 21:0.114342 22:-0.781458 23:-0.400667 24:-0.937967 25:-0.990568 26:-0.999878 27:-0.999647 28:-0.999987 29:-0.999786 30:0.998223 
41.5945158292761 1:-0.93482 2:-0.14806 3:-0.846845 4:0.672598 5:-0.918687 6:-0.965754 7:-0.943415 8:-0.727348 9:-0.92782 10:-0.997674 11:-0.999959 12:-0.999954 13:-1 14:-0.999991 15:-0.878342 16:-0.853015 17:-0.108921 18:-0.896044 19:-0.131393 20:-0.83286 21:0.10126 22:-0.74476 23:-0.656915 24:-0.874266 25:-0.970765 26:-0.999766 27:-0.999886 28:-0.999987 29:-0.999798 30:0.998223 
319.8531756855862 1:-0.982988 2:-0.192436 3:-0.980396 4:0.679284 5:-0.902794 6:-0.966886 7:-0.926969 8:-0.0522592 9:-0.984139 10:-0.999583 11:-0.999999 12:-0.999999 13:-1 14:-0.999994 15:-0.878342 16:-0.944566 17:-0.117394 18:-0.965961 19:-0.120116 20:-0.8245 21:0.101893 22:-0.72877 23:-0.203218 24:-0.955217 25:-0.983353 26:-0.999985 27:-0.999979 28:-0.999987 29:-0.999816 30:0.998223 
136.7648560392766 1:-0.963836 2:-0.12754 3:-0.957827 4:0.68451 5:-0.903198 6:-0.956997 7:-0.928775 8:-0.323626 9:-0.964648 10:-0.998818 11:-0.999993 12:-0.999984 13:-1 14:-0.999993 15:-0.878342 16:-0.90453 17:-0.0981443 18:-0.950247 19:-0.0991669 20:-0.824726 21:0.113362 22:-0.739915 23:-0.392129 24:-0.927103 25:-0.970361 26:-0.999412 27:-0.999365 28:-0.999987 29:-0.999725 30:0.998222 
247.5543937119023 1:-0.968105 2:-0.110097 3:-0.932267 4:0.668653 5:-0.913044 6:-0.972721 7:-0.933573 8:-0.500783 9:-0.966085 10:-0.99917 11:-0.999933 12:-0.999893 13:-1 14:-0.999989 15:-0.878342 16:-0.878273 17:-0.00735771 18:-0.923781 19:-0.127145 20:-0.809893 21:0.103709 22:-0.696347 23:-0.616627 24:-0.900742 25:-0.968714 26:-0.999851 27:-0.999846 28:-0.999987 29:-0.99983 30:0.998223 
70.17420000305442 1:-0.944665 2:-0.0780549 3:-0.878326 4:0.671355 5:-0.923223 6:-0.975616 7:-0.946512 8:-0.599594 9:-0.939729 10:-0.998133 11:-0.999961 12:-0.999927 13:-1 14:-0.99999 15:-0.878342 16:-0.91125 17:-0.0749008 18:-0.916667 19:-0.125583 20:-0.835758 21:0.0923949 22:-0.782626 23:-0.487367 24:-0.914064 25:-0.988935 26:-0.999947 27:-0.999932 28:-0.999987 29:-0.99981 30:0.998223 
10.43980384106731 1:-0.98872 2:-0.199934 3:-0.981296 4:0.677287 5:-0.913085 6:-0.964419 7:-0.93614 8:-0.147384 9:-0.989415 10:-0.99976 11:-0.999993 12:-0.999993 13:-1 14:-0.999993 15:-0.878342 16:-0.922764 17:-0.0930168 18:-0.935719 19:-0.131434 20:-0.833448 21:0.100324 22:-0.761881 23:-0.487081 24:-0.929274 25:-0.986404 26:-0.999817 27:-0.999879 28:-0.999987 29:-0.999802 30:0.998223 
24.21882544749349 1:-0.948401 2:-0.491467 3:-0.893339 4:0.681553 5:-0.923674 6:-0.961346 7:-0.937395 8:-0.694718 9:-0.94454 10:-0.998214 11:-0.999983 12:-0.999995 13:-1 14:-0.999994 15:-0.878342 16:-0.901919 17:-0.309971 18:-0.932014 19:-0.118207 20:-0.852265 21:0.104966 22:-0.780278 23:-0.635988 24:-0.916832 25:-0.975383 26:-0.999784 27:-0.999942 28:-0.999987 29:-0.999815 30:0.998223 
139.7884251990792 1:-0.970302 2:-0.17691 3:-0.928082 4:0.682017 5:-0.909142 6:-0.96447 7:-0.937756 8:-0.551663 9:-0.967676 10:-0.9993 11:-0.999997 12:-0.999998 13:-1 14:-0.999994 15:-0.878342 16:-0.944017 17:-0.0203419 18:-0.967335 19:-0.11845 20:-0.829378 21:0.10044 22:-0.780829 23:-0.207346 24:-0.95561 25:-0.981533 26:-0.999889 27:-0.999988 28:-0.999987 29:-0.999814 30:0.998223 
52.25610288817968 1:-0.962616 2:-0.205699 3:-0.897426 4:0.692994 5:-0.928636 6:-0.962121 7:-0.945932 8:-0.632777 9:-0.957802 10:-0.999095 11:-0.999866 12:-0.999875 13:-1 14:-0.999989 15:-0.878342 16:-0.942411 17:-0.131451 18:-0.944058 19:-0.106696 20:-0.854318 21:0.101079 22:-0.803816 23:-0.549432 24:-0.943378 25:-0.990868 26:-0.999097 27:-0.999699 28:-0.999987 29:-0.999804 30:0.998223 
24.03378376675558 1:-0.990172 2:-0.121592 3:-0.977018 4:0.679827 5:-0.907529 6:-0.964964 7:-0.936219 8:-0.320305 9:-0.990324 10:-0.9998 11:-1 12:-1 13:-1 14:-0.999994 15:-0.878342 16:-0.987854 17:-0.068847 18:-0.978037 19:-0.120199 20:-0.831215 21:0.101798 22:-0.768486 23:-0.305429 24:-0.983204 25:-0.994553 26:-0.999982 27:-0.999997 28:-0.999987 29:-0.999814 30:0.998223 
180.3984454947683 1:-0.950205 2:-0.199728 3:-0.879386 4:0.680146 5:-0.920546 6:-0.961669 7:-0.942013 8:-0.633699 9:-0.944847 10:-0.99851 11:-0.999991 12:-0.999997 13:-1 14:-0.999994 15:-0.878342 16:-0.867438 17:-0.124782 18:-0.906183 19:-0.124996 20:-0.839178 21:0.101399 22:-0.769276 23:-0.61079 24:-0.88659 25:-0.973455 26:-0.99996 27:-0.999973 28:-0.999987 29:-0.999812 30:0.998223 
421.7347921018732 1:-0.968931 2:-0.316114 3:-0.910426 4:0.686717 5:-0.896304 6:-0.965224 7:-0.902364 8:-0.383355 9:-0.964756 10:-0.999312 11:-0.999965 12:-0.999965 13:-1 14:-0.999993 15:-0.878342 16:-0.927388 17:-0.227863 18:-0.943172 19:-0.115373 20:-0.820016 21:0.101844 22:-0.678655 23:-0.329063 24:-0.935286 25:-0.984424 26:-0.99981 27:-0.999838 28:-0.999987 29:-0.999827 30:0.998223 
410.013928983843 1:-0.961957 2:-0.256027 3:-0.888038 4:0.68807 5:-0.896399 6:-0.95383 7:-0.913878 8:-0.632961 9:-0.956313 10:-0.999109 11:-0.999973 12:-0.999945 13:-1 14:-0.999992 15:-0.878342 16:-0.928595 17:-0.194646 18:-0.93966 19:-0.110088 20:-0.822685 21:0.110742 22:-0.718584 23:-0.493059 24:-0.934179 25:-0.986844 26:-0.999918 27:-0.999786 28:-0.999987 29:-0.999803 30:0.998223 
512 1:-0.953298 2:-0.217425 3:-0.881944 4:0.681795 5:-0.92779 6:-0.960146 7:-0.937309 8:-0.649184 9:-0.947891 10:-0.998681 11:-0.999974 12:-0.999993 13:-1 14:-0.999994 15:-0.878342 16:-0.907514 17:-0.114009 18:-0.931921 19:-0.120101 20:-0.853846 21:0.103415 22:-0.772021 23:-0.590007 24:-0.919638 25:-0.981358 26:-0.99969 27:-0.999962 28:-0.999987 29:-0.999817 30:0.998223 
111.1098177227913 1:-0.944259 2:-0.261178 3:-0.883062 4:0.690395 5:-0.914152 6:-0.961623 7:-0.942582 8:-0.705964 9:-0.939811 10:-0.998091 11:-0.99993 12:-0.999923 13:-1 14:-0.999989 15:-0.878342 16:-0.874849 17:-0.206056 18:-0.916348 19:-0.102689 20:-0.844891 21:0.107911 22:-0.794557 23:-0.648943 24:-0.895352 25:-0.971488 26:-0.999327 27:-0.999547 28:-0.999987 29:-0.99976 30:0.998223 
29.7125496160556 1:-0.901611 2:-0.31866 3:-0.769492 4:0.69165 5:-0.939586 6:-0.954567 7:-0.942683 8:-0.871509 9:-0.890391 10:-0.995355 11:-0.999875 12:-0.999885 13:-1 14:-0.999985 15:-0.878342 16:-0.764497 17:-0.0900899 18:-0.848374 19:-0.117096 20:-0.873928 21:0.0991919 22:-0.784115 23:-0.825468 24:-0.80577 25:-0.940684 26:-0.998758 27:-0.999869 28:-0.999987 29:-0.999836 30:0.998223 
-4.808159791807896 1:-0.995145 2:-0.192548 3:-0.950047 4:0.676487 5:-0.894535 6:-0.966649 7:-0.932571 8:0.178361 9:-0.992264 10:-0.999972 11:-0.999983 12:-0.999988 13:-1 14:-0.999993 15:-0.878342 16:-0.943432 17:-0.166528 18:-0.939821 19:-0.133475 20:-0.791196 21:0.0876286 22:-0.780865 23:-0.302297 24:-0.941821 25:-0.992389 26:-0.998384 27:-0.999717 28:-0.999987 29:-0.999793 30:0.998222 
-51.25867371554771 1:-0.95923 2:-0.499275 3:-0.906216 4:0.684187 5:-0.910785 6:-0.960347 7:-0.929463 8:-0.28362 9:-0.955571 10:-0.99878 11:-0.999991 12:-0.999988 13:-1 14:-0.999993 15:-0.878342 16:-0.876077 17:-0.394838 18:-0.944793 19:-0.111368 20:-0.864338 21:0.11497 22:-0.765907 23:-0.358389 24:-0.909925 25:-0.948505 26:-0.999206 27:-0.999777 28:-0.999987 29:-0.99978 30:0.998223 
-12.20208468560521 1:-0.989841 2:-0.136177 3:-0.983315 4:0.679847 5:-0.912115 6:-0.964973 7:-0.939387 8:0.20988 9:-0.990622 10:-0.999778 11:-0.999999 12:-0.999999 13:-1 14:-0.999994 15:-0.878342 16:-0.950456 17:0.0759486 18:-0.97013 19:-0.120288 20:-0.834366 21:0.0962945 22:-0.790239 23:-0.00661746 24:-0.960263 25:-0.980551 26:-0.999865 27:-0.999976 28:-0.999987 29:-0.999815 30:0.998223 
-512 1:-0.977404 2:-0.186693 3:-0.929095 4:0.687842 5:-0.913577 6:-0.963364 7:-0.930104 8:-0.304083 9:-0.974205 10:-0.999576 11:-0.999956 12:-0.999959 13:-1 14:-0.999992 15:-0.878342 16:-0.935365 17:-0.0797691 18:-0.941048 19:-0.101635 20:-0.823941 21:0.103997 22:-0.721998 23:-0.382162 24:-0.93831 25:-0.989221 26:-0.998939 27:-0.999569 28:-0.999987 29:-0.999778 30:0.998222 
-11.8718804289305 1:-0.963559 2:-0.444158 3:-0.925885 4:0.676435 5:-0.905962 6:-0.967804 7:-0.914202 8:-0.212094 9:-0.961361 10:-0.998933 11:-0.999994 12:-0.999987 13:-1 14:-0.999993 15:-0.878342 16:-0.863652 17:-0.175094 18:-0.956522 19:-0.107041 20:-0.861554 21:0.108783 22:-0.75707 23:-0.284646 24:-0.909342 25:-0.936468 26:-0.998958 27:-0.999718 28:-0.999987 29:-0.999766 30:0.998223 
-13.89469300247534 1:-0.934634 2:0.164024 3:-0.838516 4:0.681569 5:-0.906569 6:-0.954123 7:-0.921134 8:-0.729192 9:-0.92686 10:-0.997564 11:-0.999999 12:-0.999997 13:-1 14:-0.999993 15:-0.878342 16:-0.793822 17:0.285191 18:-0.912126 19:-0.109856 20:-0.8356 21:0.125383 22:-0.74899 23:-0.663463 24:-0.851978 25:-0.896347 26:-0.999858 27:-0.999696 28:-0.999987 29:-0.99974 30:0.998223 
-4.13941832074815 1:-0.959653 2:-0.00614863 3:-0.889723 4:0.684663 5:-0.900649 6:-0.956516 7:-0.914459 8:-0.492487 9:-0.954386 10:-0.998935 11:-0.999993 12:-0.999981 13:-1 14:-0.999993 15:-0.878342 16:-0.799251 17:0.152908 18:-0.896331 19:-0.0798773 20:-0.808373 21:0.133555 22:-0.632958 23:-0.689942 24:-0.847 25:-0.924081 26:-0.999065 27:-0.997157 28:-0.999987 29:-0.999236 30:0.998208 
-3.709270632707615 1:-0.986711 2:-0.166999 3:-0.960791 4:0.682344 5:-0.921989 6:-0.962317 7:-0.933657 8:0.159373 9:-0.985647 10:-0.999761 11:-0.999983 12:-0.999994 13:-1 14:-0.999994 15:-0.878342 16:-0.916047 17:-0.0829308 18:-0.963154 19:-0.106718 20:-0.866313 21:0.106199 22:-0.764407 23:-0.0961632 24:-0.939303 25:-0.969739 26:-0.998649 27:-0.999707 28:-0.999987 29:-0.999789 30:0.998223 
-423.2893048250943 1:-0.97081 2:-0.173014 3:-0.953618 4:0.684266 5:-0.910823 6:-0.959473 7:-0.93369 8:-0.292101 9:-0.970564 10:-0.999202 11:-0.999992 12:-0.999987 13:-1 14:-0.999993 15:-0.878342 16:-0.930149 17:-0.111658 18:-0.966379 19:-0.118003 20:-0.832219 21:0.107677 22:-0.749691 23:-0.161508 24:-0.948072 25:-0.976066 26:-0.999991 27:-0.999979 28:-0.999987 29:-0.999811 30:0.998223 
-148.8139520282533 1:-0.986217 2:-0.306591 3:-0.938138 4:0.680263 5:-0.907374 6:-0.956742 7:-0.929854 8:-0.131346 9:-0.983046 10:-0.999805 11:-0.999999 12:-1 13:-1 14:-0.999994 15:-0.878342 16:-0.913739 17:-0.21229 18:-0.954354 19:-0.113547 20:-0.818807 21:0.115925 22:-0.764707 23:-0.264148 24:-0.933811 25:-0.972708 26:-0.999836 27:-0.999873 28:-0.999987 29:-0.999797 30:0.998223 
-41.62096018149523 1:-0.97986 2:-0.376597 3:-0.924959 4:0.68258 5:-0.892493 6:-0.960944 7:-0.939805 8:-0.276243 9:-0.976036 10:-0.999644 11:-0.99998 12:-0.999995 13:-1 14:-0.999994 15:-0.878342 16:-0.901995 17:-0.148344 18:-0.932172 19:-0.10746 20:-0.813686 21:0.0986475 22:-0.796573 23:-0.470282 24:-0.916948 25:-0.978486 26:-0.998565 27:-0.999833 28:-0.999987 29:-0.999794 30:0.998223 
-259.3101254021205 1:-0.970935 2:-0.257803 3:-0.902564 4:0.680828 5:-0.914784 6:-0.953029 7:-0.945129 8:-0.465756 9:-0.965824 10:-0.999438 11:-0.999997 12:-0.999996 13:-1 14:-0.999994 15:-0.878342 16:-0.87544 17:-0.0183648 18:-0.892116 19:-0.130548 20:-0.834483 21:0.113248 22:-0.800356 23:-0.658196 24:-0.883771 25:-0.983194 26:-0.999109 27:-0.999919 28:-0.999987 29:-0.999811 30:0.998223 
-24.92992826836176 1:-0.891515 2:-0.178894 3:-0.746355 4:0.694957 5:-0.908535 6:-0.944905 7:-0.882692 8:-0.923311 9:-0.879049 10:-0.994504 11:-0.999907 12:-0.99981 13:-1 14:-0.999975 15:-0.878343 16:-0.824753 17:0.00914017 18:-0.89301 19:-0.104159 20:-0.825409 21:0.0931429 22:-0.859552 23:-0.479392 24:-0.858372 25:-0.952573 26:-0.997485 27:-0.999647 28:-0.999988 29:-0.999811 30:0.998223 
-218.1280113141872 1:-0.944602 2:-0.362926 3:-0.857136 4:0.693711 5:-0.935434 6:-0.961409 7:-0.959046 8:-0.769932 9:-0.937657 10:-0.998277 11:-0.999846 12:-0.999852 13:-1 14:-0.999986 15:-0.878342 16:-0.875442 17:-0.19475 18:-0.941045 19:-0.106504 20:-0.870563 21:0.0943451 22:-0.848001 23:-0.580755 24:-0.907764 25:-0.95691 26:-0.99834 27:-0.999508 28:-0.999988 29:-0.999835 30:0.998224 
-32.66418050694091 1:-0.925359 2:-0.163111 3:-0.831653 4:0.69825 5:-0.91947 6:-0.966402 7:-0.937486 8:-0.809199 9:-0.917807 10:-0.997035 11:-0.999745 12:-0.999773 13:-1 14:-0.999977 15:-0.878342 16:-0.784604 17:-0.175674 18:-0.882111 19:-0.0942276 20:-0.860486 21:0.108024 22:-0.765918 23:-0.783899 24:-0.832561 25:-0.929968 26:-0.997805 27:-0.999142 28:-0.999987 29:-0.999643 30:0.998223 
-512 1:-0.962768 2:-0.242264 3:-0.900343 4:0.684316 5:-0.907937 6:-0.97556 7:-0.915421 8:-0.586321 9:-0.958216 10:-0.999087 11:-0.999967 12:-0.999992 13:-1 14:-0.999993 15:-0.878342 16:-0.941717 17:-0.18591 18:-0.95591 19:-0.122469 20:-0.810304 21:0.0921591 22:-0.685149 23:-0.429993 24:-0.948835 25:-0.985935 26:-0.999824 27:-0.999832 28:-0.999987 29:-0.999825 30:0.998223 
-417.4664503587004 1:-0.967333 2:-0.186902 3:-0.881938 4:0.691667 5:-0.89684 6:-0.952592 7:-0.915167 8:-0.51553 9:-0.960602 10:-0.999381 11:-0.999938 12:-0.999891 13:-1 14:-0.99999 15:-0.878342 16:-0.955952 17:-0.170862 18:-0.934709 19:-0.113373 20:-0.82582 21:0.101778 22:-0.744982 23:-0.389565 24:-0.945697 25:-0.997033 26:-0.999757 27:-0.999937 28:-0.999987 29:-0.999811 30:0.998223 
-11.88613652021554 1:-0.90298 2:-0.23799 3:-0.606759 4:0.730792 5:-0.905641 6:-0.9542 7:-0.870708 8:-0.911512 9:-0.876163 10:-0.997142 11:-0.998316 12:-0.998128 13:-0.999998 14:-0.999855 15:-0.878381 16:-0.847643 17:-0.0548766 18:-0.833081 19:-0.0498701 20:-0.795136 21:0.109372 22:-0.552177 23:-0.807103 24:-0.840655 25:-0.994181 26:-0.986926 27:-0.993597 28:-0.99998 29:-0.999439 30:0.998038 
-512 1:-0.960949 2:-0.179206 3:-0.897141 4:0.681639 5:-0.904127 6:-0.957836 7:-0.925102 8:-0.594617 9:-0.956265 10:-0.999011 11:-1 12:-0.999997 13:-1 14:-0.999994 15:-0.878342 16:-0.88799 17:-0.101707 18:-0.936124 19:-0.114383 20:-0.823644 21:0.100276 22:-0.782386 23:-0.479821 24:-0.911747 25:-0.968614 26:-0.999618 27:-0.999957 28:-0.999987 29:-0.999808 30:0.998223 
-34.56001830524227 1:-0.899797 2:-0.145967 3:-0.819701 4:0.688346 5:-0.917071 6:-0.968249 7:-0.915768 8:-0.754631 9:-0.893521 10:-0.994568 11:-0.999928 12:-0.999957 13:-1 14:-0.999989 15:-0.878342 16:-0.811176 17:0.0719997 18:-0.887282 19:-0.128252 20:-0.805273 21:0.125397 22:-0.536388 23:-0.58474 24:-0.848643 25:-0.94465 26:-0.997715 27:-0.999009 28:-0.999987 29:-1 30:0.998218 
-195.8545866160117 1:-0.962333 2:-0.195637 3:-0.918873 4:0.684236 5:-0.910501 6:-0.955231 7:-0.945551 8:-0.532491 9:-0.959583 10:-0.998966 11:-0.999996 12:-0.999984 13:-1 14:-0.999993 15:-0.878342 16:-0.821 17:-0.153434 18:-0.89568 19:-0.105829 20:-0.864277 21:0.109269 22:-0.796128 23:-0.699053 24:-0.857768 25:-0.949401 26:-0.99919 27:-0.999587 28:-0.999987 29:-0.999778 30:0.998223 
-512 1:-0.966176 2:-0.18194 3:-0.927386 4:0.682591 5:-0.903636 6:-0.957811 7:-0.939993 8:-0.507972 9:-0.963873 10:-0.999114 11:-0.999997 12:-0.999995 13:-1 14:-0.999993 15:-0.878342 16:-0.868626 17:-0.117994 18:-0.914966 19:-0.116498 20:-0.840978 21:0.106471 22:-0.796592 23:-0.663036 24:-0.891501 25:-0.969248 26:-0.999985 27:-0.999921 28:-0.999987 29:-0.999815 30:0.998223 
-512 1:-0.966488 2:-0.190562 3:-0.927066 4:0.681942 5:-0.908213 6:-0.960105 7:-0.940322 8:-0.532122 9:-0.964126 10:-0.999131 11:-0.999999 12:-0.999997 13:-1 14:-0.999994 15:-0.878342 16:-0.86828 17:-0.101821 18:-0.914183 19:-0.122131 20:-0.837244 21:0.106134 22:-0.79587 23:-0.675564 24:-0.890941 25:-0.969453 26:-0.999966 27:-0.999964 28:-0.999987 29:-0.999819 30:0.998223 
-23.5522788238103 1:-0.992675 2:-0.22508 3:-0.943124 4:0.678307 5:-0.903747 6:-0.963093 7:-0.93379 8:0.172274 9:-0.989368 10:-0.999943 11:-0.999996 12:-0.999997 13:-1 14:-0.999994 15:-0.878342 16:-0.947677 17:-0.224076 18:-0.942921 19:-0.124951 20:-0.828497 21:0.0981265 22:-0.729369 23:-0.258023 24:-0.945505 25:-0.992024 26:-0.999985 27:-0.999962 28:-0.999987 29:-0.999812 30:0.998223 
-4.795897675110351 1:-0.994429 2:-0.117428 3:-0.981295 4:0.679712 5:-0.90835 6:-0.966372 7:-0.93468 8:0.499124 9:-0.994585 10:-0.999888 11:-1 12:-0.999999 13:-1 14:-0.999994 15:-0.878342 16:-0.968029 17:-0.144136 18:-0.958967 19:-0.127771 20:-0.835815 21:0.104528 22:-0.773353 23:-0.0889033 24:-0.963747 25:-0.994373 26:-0.999834 27:-0.999953 28:-0.999987 29:-0.999812 30:0.998223 
-97.79146103783049 1:-0.977189 2:-0.176694 3:-0.922113 4:0.678463 5:-0.913915 6:-0.96057 7:-0.925152 8:-0.34925 9:-0.973346 10:-0.999593 11:-0.999991 12:-0.999998 13:-1 14:-0.999994 15:-0.878342 16:-0.874158 17:-0.0316247 18:-0.935357 19:-0.0818868 20:-0.866675 21:0.116787 22:-0.72639 23:-0.470568 24:-0.90432 25:-0.959493 26:-0.996108 27:-0.998115 28:-0.999985 29:-0.999514 30:0.998215 
-512 1:-0.947832 2:-0.165682 3:-0.874603 4:0.688313 5:-0.949002 6:-0.958873 7:-0.964614 8:-0.613236 9:-0.942243 10:-0.998389 11:-0.999884 12:-0.999919 13:-1 14:-0.999993 15:-0.878342 16:-0.833537 17:-0.0402317 18:-0.904139 19:-0.101675 20:-0.893531 21:0.124913 22:-0.844445 23:-0.629582 24:-0.868306 25:-0.952144 26:-0.99855 27:-0.99887 28:-0.999987 29:-0.999805 30:0.998226 
-512 1:-0.958394 2:-0.241226 3:-0.899692 4:0.677895 5:-0.921455 6:-0.971394 7:-0.951048 8:-0.569176 9:-0.954193 10:-0.998863 11:-0.999993 12:-0.999988 13:-1 14:-0.999994 15:-0.878342 16:-0.886335 17:-0.197409 18:-0.932911 19:-0.120335 20:-0.84866 21:0.110673 22:-0.833612 23:-0.58474 24:-0.909328 25:-0.969015 26:-0.99993 27:-0.999831 28:-0.999987 29:-0.999834 30:0.998223 
-48.3812837172197 1:-0.969317 2:-0.130456 3:-0.926832 4:0.671462 5:-0.899755 6:-0.968861 7:-0.926263 8:-0.395887 9:-0.966666 10:-0.999256 11:-0.999957 12:-0.99994 13:-1 14:-0.999991 15:-0.878342 16:-0.913483 17:-0.100068 18:-0.949263 19:-0.137439 20:-0.819366 21:0.103009 22:-0.76573 23:-0.365363 24:-0.931184 25:-0.975922 26:-0.999112 27:-0.999734 28:-0.999987 29:-0.99978 30:0.998223 
-53.20886271161084 1:-0.978776 2:0.00774835 3:-0.935471 4:0.673588 5:-0.910957 6:-0.960091 7:-0.92738 8:-0.354781 9:-0.976053 10:-0.999543 11:-0.99996 12:-0.999971 13:-1 14:-0.999993 15:-0.878342 16:-0.943983 17:0.0131398 18:-0.942541 19:-0.134878 20:-0.834847 21:0.108946 22:-0.795321 23:-0.394832 24:-0.943436 25:-0.990188 26:-0.999025 27:-0.999822 28:-0.999987 29:-0.9998 30:0.998222 
-4.020297033208972 1:-0.938596 2:-0.627811 3:-0.824658 4:0.695885 5:-0.824188 6:-0.972375 7:-0.88891 8:-0.603096 9:-0.929131 10:-0.997931 11:-0.999429 12:-0.999749 13:-1 14:-0.999994 15:-0.878345 16:-0.761499 17:-0.593266 18:-0.877937 19:-0.0835905 20:-0.757808 21:0.120557 22:-0.632096 23:-0.687949 24:-0.818737 25:-0.891948 26:-0.99679 27:-0.997398 28:-0.999985 29:-0.999839 30:0.998202 
-0.02828136649469563 1:-0.94956 2:-0.438478 3:-0.84032 4:0.693139 5:-0.888803 6:-0.972462 7:-0.915363 8:-0.592589 9:-0.940549 10:-0.998661 11:-0.99983 12:-0.999887 13:-1 14:-0.999989 15:-0.878343 16:-0.803795 17:-0.432636 18:-0.895432 19:-0.0949477 20:-0.841706 21:0.11553 22:-0.716093 23:-0.640116 24:-0.848875 25:-0.927 26:-0.998852 27:-0.9991 28:-0.999987 29:-0.999646 30:0.99822 
-0.5431581361472094 1:-0.89189 2:0.0475225 3:-0.702342 4:0.737287 5:-0.909405 6:-0.971769 7:-0.926896 8:-0.892156 9:-0.875205 10:-0.994993 11:-0.997546 12:-0.997742 13:-0.999997 14:-0.999772 15:-0.878346 16:-0.672381 17:-0.210635 18:-0.804811 19:-0.0208935 20:-0.931033 21:0.14788 22:-1 23:-0.866325 24:-0.737452 25:-0.891837 26:-0.986047 27:-0.984969 28:-0.999916 29:-0.996802 30:0.998761 
